svm_type c_svc
kernel_type rbf
gamma 0.125
nr_class 5
total_sv 6280
rho 0.123645 -0.0731273 -0.372266 -0.319904 -0.307742 -0.632402 -0.447142 -0.121723 0.0141304 0.335327
label 0 1 -1 -2 2
nr_sv 1212 1323 1395 1304 1046
SV
4 4 4 0 1:0.029823601 2:-0.077070384 3:-0.050448529 4:-0.35087704 5:0.33092761 6:-0.43011373 7:-0.23609839 8:1.6125793 
0 2.018211615308711 0 0 1:0.37630905 2:0.055683527 3:-0.068134856 4:-0.35087704 5:0.81062736 6:-0.43011373 7:0.280986 8:1.6125793 
4 4 0 4 1:-0.14999679 2:-0.064740998 3:0.25021904 4:-0.35087704 5:0.89528026 6:-0.43011373 7:0.16328602 8:1.6125793 
4 4 4 4 1:-0.1762148 2:-0.085144871 3:-0.068134856 4:-0.35087704 5:0.838845 6:-0.43011373 7:-0.35243091 8:-0.62012455 
4 4 4 4 1:-0.15842732 2:-0.084056594 3:-0.068134856 4:0.62499101 5:0.81062736 6:-0.43011373 7:-0.61577573 8:-0.62012455 
0 4 4 0 1:-0.10321199 2:-0.08215609 3:-0.068134856 4:-0.35087704 5:0.81062736 6:1.4126284 7:-0.25707104 8:-0.62012455 
4 0 0 0 1:-0.036508908 2:-0.083913259 3:-0.068134856 4:-0.35087704 5:1.0363684 6:-0.43011373 7:0.11908741 8:-0.62012455 
0 4 0 0 1:0.31201469 2:-0.068857871 3:-0.068134856 4:-0.35087704 5:-0.68490716 6:-0.43011373 7:0.85776684 8:-0.62012455 
0 4 4 0 1:-0.021500714 2:-0.082978934 3:-0.068134856 4:-0.35087704 5:-0.20520741 6:-0.43011373 7:-0.070032164 8:-0.62012455 
4 4 4 4 1:-0.080884985 2:-0.028535868 3:-0.068134856 4:0.62499101 5:-0.68490716 6:-0.43011373 7:-0.29171865 8:-0.62012455 
4 4 4 4 1:-0.032062035 2:-0.070986648 3:-0.068134856 4:-0.35087704 5:-0.40273083 6:-0.43011373 7:-0.63773724 8:1.6125793 
0 4 4 0 1:-0.18075432 2:-0.07355339 3:-0.068134856 4:-0.35087704 5:0.5848863 6:-0.43011373 7:0.93771226 8:-0.62012455 
4 0 0 0 1:-0.18668348 2:-0.085166106 3:-0.068134856 4:-0.35087704 5:-2.0957888 6:1.4126284 7:-0.48834117 8:-0.62012455 
4 2.802710360467149 0 4 1:-0.077271901 2:0.45108654 3:-0.068134856 4:-0.35087704 5:-0.092336875 6:-0.43011373 7:-0.8058234 8:-0.62012455 
4 4 0 4 1:-0.16037282 2:-0.083469986 3:-0.068134856 4:-0.35087704 5:-1.2492598 6:-0.43011373 7:-0.22410186 8:-0.62012455 
4 4 4 4 1:-0.19075978 2:-0.085261662 3:-0.068134856 4:-0.35087704 5:-1.0235187 6:-0.43011373 7:-0.48834117 8:-0.62012455 
0 3.687378970297416 4 0 1:-0.19252 2:-0.08524839 3:-0.068134856 4:-0.35087704 5:-0.20520741 6:1.4126284 7:2.6996805 8:-0.62012455 
4 4 4 4 1:-0.16000225 2:-0.084974993 3:-0.050448529 4:-0.35087704 5:-1.2492598 6:-0.43011373 7:-0.7819404 8:-0.62012455 
0 4 4 0 1:-0.15935375 2:-0.085227155 3:-0.068134856 4:-0.35087704 5:0.30270998 6:-0.43011373 7:-0.33143665 8:-0.62012455 
0 4 4 0 1:-0.034563401 2:-0.08085812 3:-0.068134856 4:-0.35087704 5:0.50023341 6:-0.43011373 7:-0.27845536 8:-0.62012455 
0 4 1.086647825820226 0 1:-0.033636969 2:-0.082020719 3:0.0026104534 4:-0.35087704 5:-0.34629557 6:-0.43011373 7:1.3750353 8:-0.62012455 
0 4 4 0 1:-0.17797502 2:-0.084847585 3:-0.068134856 4:-0.35087704 5:0.81062736 6:1.4126284 7:0.72936686 8:-0.62012455 
0 4 0 0 1:-0.11173516 2:-0.053191986 3:0.0026104534 4:-0.35087704 5:0.838845 6:-0.43011373 7:0.35992629 8:-0.62012455 
4 4 4 4 1:-0.15898318 2:-0.084324681 3:-0.068134856 4:0.62499101 5:0.33092761 6:-0.43011373 7:0.27375405 8:-0.62012455 
4 4 3.258288044569754 0 1:0.0073113108 2:-0.080091017 3:-0.068134856 4:-0.35087704 5:-1.1363893 6:-0.43011373 7:0.075478103 8:-0.62012455 
4 4 4 0 1:-0.18390419 2:-0.085312094 3:-0.068134856 4:-0.35087704 5:0.92349789 6:1.4126284 7:0.15420244 8:-0.62012455 
4 4 4 4 1:-0.17176793 2:-0.080045893 3:-0.068134856 4:-0.35087704 5:-2.5190533 6:-0.43011373 7:-0.054324909 8:-0.62012455 
4 4 4 4 1:-0.17287965 2:-0.08477061 3:-0.068134856 4:-0.35087704 5:0.838845 6:-0.43011373 7:-0.53052021 8:1.6125793 
0.5920583671539007 0.9136393075274346 0.3299311794475476 0.3583675784512001 1:15.035793 2:0.484924 3:-0.068134856 4:-0.35087704 5:-0.54381899 6:-0.43011373 7:0.47769502 8:-0.62012455 
0 0 4 0 1:0.020466641 2:-0.08418931 3:-0.068134856 4:-0.35087704 5:0.52845104 6:-0.43011373 7:0.29399247 8:-0.62012455 
4 4 4 4 1:-0.19548458 2:-0.085367835 3:-0.068134856 4:-0.35087704 5:0.81062736 6:-0.43011373 7:-0.34674721 8:-0.62012455 
4 4 4 4 1:-0.19446551 2:-0.084627276 3:-0.068134856 4:-0.35087704 5:1.1774566 6:-0.43011373 7:-0.74330224 8:-0.62012455 
4 4 4 0 1:0.029823601 2:-0.077070384 3:-0.032762202 4:-0.35087704 5:-0.14877214 6:-0.43011373 7:-0.090290119 8:1.6125793 
4 4 4 4 1:-0.17547366 2:-0.08502808 3:-0.068134856 4:-0.35087704 5:-0.91064822 6:-0.43011373 7:-0.52161575 8:-0.62012455 
0 1.16938695358258 1.52143077746992 0.06885093061214444 1:-0.17130472 2:-0.084093754 3:-0.068134856 4:-0.35087704 5:-2.0393535 6:-0.43011373 7:6.74888 8:1.6125793 
4 4 4 0 1:-0.14230741 2:-0.084221162 3:-0.068134856 4:-0.35087704 5:0.92349789 6:1.4126284 7:-0.19460695 8:-0.62012455 
4 4 4 4 1:-0.093299169 2:-0.057361946 3:-0.068134856 4:-0.35087704 5:0.89528026 6:-0.43011373 7:-0.45136941 8:-0.62012455 
0 4 4 0 1:-0.16824749 2:-0.085004191 3:-0.068134856 4:-0.35087704 5:0.64132157 6:1.4126284 7:-0.21721496 8:-0.62012455 
0 4 4 0 1:-0.17473251 2:-0.084945796 3:-0.068134856 4:-0.35087704 5:-0.71312479 6:1.4126284 7:0.15420244 8:-0.62012455 
0.9293348813884643 0.5532315821133362 0.4459647814441375 0.4184396552434184 1:4.7805652 2:0.1417875 3:-0.068134856 4:-0.35087704 5:-1.9547006 6:3.2553706 7:0.31643937 8:-0.62012455 
4 4 0 0 1:-0.19344643 2:-0.072228877 3:-0.068134856 4:-0.35087704 5:0.838845 6:-0.43011373 7:-0.26338626 8:-0.62012455 
0 4 0 0 1:-0.15648181 2:-0.084813079 3:-0.068134856 4:-0.35087704 5:-0.14877214 6:-0.43011373 7:1.3277667 8:-0.62012455 
0 0 4 0 1:0.11839047 2:-0.083047946 3:-0.068134856 4:-0.35087704 5:0.78240973 6:-0.43011373 7:1.0137684 8:-0.62012455 
0 4 0 0 1:-0.032062035 2:-0.070991957 3:-0.068134856 4:-0.35087704 5:-0.60025426 6:-0.43011373 7:0.79145037 8:-0.62012455 
4 4 4 4 1:-0.10802943 2:-0.082893995 3:-0.068134856 4:-0.35087704 5:0.89528026 6:-0.43011373 7:-0.27575358 8:-0.62012455 
4 4 4 0 1:-0.034563401 2:-0.08085812 3:-0.068134856 4:-0.35087704 5:0.6695392 6:-0.43011373 7:-0.13112877 8:1.6125793 
0 4 4 0 1:-0.10701036 2:-0.079337186 3:-0.068134856 4:-0.35087704 5:-0.31807793 6:1.4126284 7:-0.27749235 8:-0.62012455 
4 4 4 4 1:-0.18001317 2:-0.084176039 3:-0.050448529 4:-0.35087704 5:0.838845 6:-0.43011373 7:-0.44147556 8:-0.62012455 
4 4 1.922219842986641 4 1:-0.1837189 2:-0.084871474 3:-0.050448529 4:-0.35087704 5:-1.4750009 6:-0.43011373 7:-0.73235476 8:1.6125793 
4 4 4 4 1:-0.023909437 2:-0.083830975 3:-0.068134856 4:-0.35087704 5:-1.7853948 6:-0.43011373 7:-0.63773724 8:1.6125793 
4 4 4 4 1:-0.19390965 2:-0.085322711 3:-0.068134856 4:-0.35087704 5:0.81062736 6:-0.43011373 7:-0.43642339 8:1.6125793 
1.871874987619381 4 4 0 1:-0.17538102 2:-0.085144871 3:-0.068134856 4:-0.35087704 5:0.07696892 6:-0.43011373 7:5.8830175 8:-0.62012455 
4 4 4 4 1:-0.19390965 2:-0.085147525 3:-0.068134856 4:-0.35087704 5:0.89528026 6:-0.43011373 7:-0.53917733 8:-0.62012455 
4 4 0 4 1:-0.18696141 2:-0.032445704 3:-0.015075874 4:-0.35087704 5:0.838845 6:-0.43011373 7:-0.26338626 8:1.6125793 
4 4 4 2.840223898657671 1:-0.14249269 2:-0.080640464 3:-0.068134856 4:-0.35087704 5:-1.8136125 6:-0.43011373 7:0.42670978 8:-0.62012455 
4 4 4 4 1:-0.053925823 2:-0.085078513 3:-0.068134856 4:-0.35087704 5:0.838845 6:-0.43011373 7:-0.26338626 8:-0.62012455 
4 4 4 4 1:-0.13925018 2:-0.082222448 3:-0.068134856 4:-0.35087704 5:0.86706263 6:-0.43011373 7:-0.623301 8:1.6125793 
0 4 4 0 1:-0.10413842 2:-0.054405017 3:-0.032762202 4:-0.35087704 5:0.78240973 6:1.4126284 7:0.020284553 8:-0.62012455 
4 4 4 4 1:-0.09098309 2:-0.082243683 3:-0.068134856 4:-0.35087704 5:0.61310394 6:-0.43011373 7:-0.77638977 8:-0.62012455 
4 4 4 4 1:0.0018453639 2:-0.063769511 3:-0.068134856 4:-0.35087704 5:-1.6725243 6:-0.43011373 7:-0.43811539 8:1.6125793 
0 4 4 0 1:-0.11266159 2:-0.07604581 3:-0.050448529 4:-0.35087704 5:-0.092336875 6:-0.43011373 7:-0.22580779 8:-0.62012455 
4 4 4 0 1:-0.13517388 2:-0.011019911 3:0.091042091 4:-0.35087704 5:-0.74134242 6:-0.43011373 7:0.022384942 8:-0.62012455 
4 4 4 4 1:-0.041789568 2:-0.07919916 3:-0.068134856 4:-0.35087704 5:0.92349789 6:-0.43011373 7:-1.1538328 8:1.6125793 
4 4 4 4 1:-0.18186604 2:-0.084844931 3:-0.068134856 4:-0.35087704 5:-1.7853948 6:-0.43011373 7:1.1685971 8:-0.62012455 
4 4 4 0 1:-0.094966746 2:-0.084239743 3:-0.068134856 4:-0.35087704 5:0.81062736 6:-0.43011373 7:-0.16739487 8:-0.62012455 
4 4 4 4 1:-0.17695595 2:-0.084842277 3:-0.068134856 4:-0.35087704 5:-0.4591661 6:-0.43011373 7:-0.75869713 8:1.6125793 
4 4 4 0 1:-0.16102133 2:-0.084045976 3:-0.068134856 4:-0.35087704 5:-0.26164267 6:-0.43011373 7:-0.29450866 8:-0.62012455 
4 4 4 0 1:-0.11016023 2:-0.082944427 3:-0.068134856 4:-0.35087704 5:-1.3621303 6:-0.43011373 7:0.42670978 8:-0.62012455 
0 4 0 4 1:-0.13897225 2:-0.08249319 3:-0.068134856 4:-0.35087704 5:0.72597447 6:-0.43011373 7:0.86193164 8:1.6125793 
0 4 4 0 1:-0.1457352 2:-0.084842277 3:-0.068134856 4:-0.35087704 5:0.81062736 6:1.4126284 7:-0.077718693 8:-0.62012455 
4 4 4 4 1:-0.18353361 2:-0.085054624 3:-0.068134856 4:-0.35087704 5:-1.5878714 6:-0.43011373 7:0.20091799 8:1.6125793 
4 4 0 0 1:1.5913242 2:-0.0011670198 3:-0.068134856 4:-0.35087704 5:-0.57203663 6:-0.43011373 7:0.35799054 8:-0.62012455 
4 4 0 0.1203715165579126 1:2.6455108 2:0.75492031 3:0.26790536 4:0.62499101 5:0.35914524 6:-0.43011373 7:-0.34459498 8:-0.62012455 
4 4 4 0 1:-0.15824203 2:-0.08477061 3:-0.068134856 4:-0.35087704 5:0.78240973 6:1.4126284 7:-0.70224918 8:-0.62012455 
4 4 4 0 1:-0.10515749 2:-0.084008816 3:-0.068134856 4:-0.35087704 5:-0.99530111 6:-0.43011373 7:0.81671379 8:-0.62012455 
4 4 4 4 1:-0.18770256 2:-0.083714184 3:-0.068134856 4:0.62499101 5:0.838845 6:-0.43011373 7:-0.26338626 8:-0.62012455 
4 4 4 4 1:-0.19539194 2:-0.085320057 3:-0.068134856 4:-0.35087704 5:0.6695392 6:-0.43011373 7:-0.59599422 8:-0.62012455 
4 4 4 4 1:-0.17695595 2:-0.084842277 3:-0.068134856 4:-0.35087704 5:-0.99530111 6:-0.43011373 7:-0.66119613 8:-0.62012455 
2.94543001816028 4 4 4 1:-0.12164798 2:-0.084730795 3:-0.068134856 4:-0.35087704 5:0.86706263 6:1.4126284 7:-0.1811912 8:1.6125793 
4 4 4 0 1:-0.19455815 2:-0.085378452 3:-0.068134856 4:-0.35087704 5:-1.6725243 6:-0.43011373 7:0.51617445 8:1.6125793 
4 4 4 4 1:-0.18418212 2:-0.084637893 3:-0.050448529 4:-0.35087704 5:0.92349789 6:-0.43011373 7:-0.71782103 8:-0.62012455 
0 4 4 0 1:-0.18538648 2:-0.085192649 3:-0.068134856 4:-0.35087704 5:0.5848863 6:1.4126284 7:-0.5834114 8:-0.62012455 
0 4 0 0 1:0.31201469 2:-0.068857871 3:-0.068134856 4:-0.35087704 5:-0.31807793 6:-0.43011373 7:0.59884808 8:-0.62012455 
4 4 4 4 1:0.11755668 2:-0.080412192 3:-0.068134856 4:-0.35087704 5:0.92349789 6:-0.43011373 7:-0.71782103 8:1.6125793 
4 4 0 4 1:-0.18149547 2:-0.085221847 3:-0.068134856 4:-0.35087704 5:2.757644 6:-0.43011373 7:-1.0334105 8:-0.62012455 
4 4 4 4 1:-0.039566132 2:-0.081877385 3:-0.068134856 4:-0.35087704 5:0.89528026 6:-0.43011373 7:-0.27575358 8:-0.62012455 
0 4 0 4 1:-0.13887961 2:-0.08532802 3:-0.068134856 4:-0.35087704 5:0.81062736 6:-0.43011373 7:0.46033835 8:1.6125793 
0 4 0 4 1:0.016575628 2:-0.070346953 3:-0.068134856 4:-0.35087704 5:0.92349789 6:-0.43011373 7:0.50301183 8:1.6125793 
0 4 4 0 1:-0.1918715 2:-0.085335983 3:-0.068134856 4:-0.35087704 5:0.18983945 6:1.4126284 7:0.43999165 8:-0.62012455 
4 4 4 4 1:-0.027337234 2:-0.073046412 3:-0.050448529 4:-0.35087704 5:0.838845 6:-0.43011373 7:-0.61956487 8:1.6125793 
4 4 4 3.120694060130858 1:-0.19168621 2:-0.085277588 3:-0.068134856 4:-0.35087704 5:0.47201577 6:-0.43011373 7:-0.56572391 8:-0.62012455 
4 4 4 4 1:-0.15768617 2:-0.083868136 3:-0.068134856 4:-0.35087704 5:-2.152224 6:-0.43011373 7:-0.45136941 8:1.6125793 
0 4 0 0 1:-0.16796956 2:-0.081949052 3:-0.068134856 4:-0.35087704 5:0.7541921 6:-0.43011373 7:-0.062235037 8:-0.62012455 
0 4 0 0 1:-0.18964806 2:-0.085298822 3:-0.068134856 4:-0.35087704 5:-0.68490716 6:-0.43011373 7:0.85776684 8:-0.62012455 
0.5819299942230956 4 4 0 1:-0.18751727 2:-0.085282896 3:-0.068134856 4:-0.35087704 5:0.24627471 6:1.4126284 7:0.30914876 8:-0.62012455 
4 4 4 4 1:0.012036112 2:-0.078532922 3:-0.068134856 4:-0.35087704 5:0.95171553 6:-0.43011373 7:-0.37438713 8:-0.62012455 
4 4 4 0 1:-0.064487144 2:-0.056560337 3:-0.068134856 4:-0.35087704 5:0.78240973 6:1.4126284 7:-0.97319934 8:-0.62012455 
0 4 4 0 1:0.26115359 2:-0.075124756 3:-0.068134856 4:-0.35087704 5:0.30270998 6:-0.43011373 7:0.18256093 8:-0.62012455 
4 4 4 4 1:-0.18927749 2:-0.084964376 3:-0.068134856 4:0.62499101 5:0.72597447 6:-0.43011373 7:0.40380337 8:-0.62012455 
4 4 4 4 1:-0.080884985 2:-0.028530559 3:-0.068134856 4:0.62499101 5:-1.3339127 6:-0.43011373 7:0.40239374 8:1.6125793 
4 4 4 0 1:-0.072639743 2:-0.049250299 3:0.020296781 4:-0.35087704 5:0.838845 6:-0.43011373 7:1.2503728 8:-0.62012455 
0 4 4 0 1:-0.17797502 2:-0.084847585 3:-0.068134856 4:-0.35087704 5:0.81062736 6:1.4126284 7:0.19130983 8:-0.62012455 
3.981829740182677 4 1.980356182160493 0 1:-0.16231833 2:-0.084497213 3:-0.032762202 4:-0.35087704 5:0.92349789 6:-0.43011373 7:6.8687832 8:-0.62012455 
4 4 4 4 1:0.025654658 2:-0.080661699 3:-0.068134856 4:0.62499101 5:-1.2210422 6:-0.43011373 7:-0.23757622 8:-0.62012455 
1.083268995724886 4 4 0.173770649157876 1:-0.19418758 2:-0.085280242 3:-0.050448529 4:-0.35087704 5:0.81062736 6:1.4126284 7:7.6344322 8:-0.62012455 
0 4 4 0 1:-0.14369705 2:-0.084332644 3:-0.068134856 4:-0.35087704 5:0.44379814 6:1.4126284 7:0.13035805 8:-0.62012455 
4 4 4 4 1:-0.096912253 2:-0.082339239 3:-0.068134856 4:0.62499101 5:0.6695392 6:-0.43011373 7:-0.31707495 8:-0.62012455 
4 4 4 0 1:-0.042808643 2:0.22723851 3:0.0026104534 4:-0.35087704 5:0.838845 6:1.4126284 7:0.80514955 8:-0.62012455 
4 4 4 4 1:-0.16630199 2:-0.084990919 3:-0.068134856 4:0.62499101 5:1.0363684 6:-0.43011373 7:0.11908741 8:-0.62012455 
4 4 4 4 1:-0.094966746 2:-0.084239743 3:-0.068134856 4:0.62499101 5:0.78240973 6:1.4126284 7:-0.16034888 8:1.6125793 
4 4 4 4 1:0.99220083 2:-0.052870812 3:-0.068134856 4:0.62499101 5:0.52845104 6:-0.43011373 7:-0.57470267 8:1.6125793 
0 0 4 3.788199242947087 1:-0.082552562 2:0.23112976 3:-0.068134856 4:-0.35087704 5:-0.0076839777 6:1.4126284 7:0.31381388 8:1.6125793 
4 0 0 0 1:-0.14944093 2:-0.083483257 3:-0.068134856 4:-0.35087704 5:-1.0517364 6:-0.43011373 7:0.026305668 8:-0.62012455 
4 0 0 4 1:-0.13980604 2:1.2119384 3:-0.015075874 4:-0.35087704 5:-0.17698977 6:-0.43011373 7:-0.55740162 8:-0.62012455 
4 4 0 4 1:-0.17806767 2:-0.085237773 3:-0.068134856 4:-0.35087704 5:-1.4750009 6:-0.43011373 7:-0.52161575 8:-0.62012455 
0 4 4 0 1:0.26393289 2:-0.078408169 3:0.020296781 4:-0.35087704 5:0.27449235 6:-0.43011373 7:0.29715711 8:-0.62012455 
3.17760043281169 0 0.1820556784196551 4 1:0.79292537 2:0.7844312 3:-0.032762202 4:0.62499101 5:-0.88243058 6:-0.43011373 7:1.1877117 8:1.6125793 
4 4 4 4 1:0.26736068 2:-0.076823531 3:-0.068134856 4:-0.35087704 5:-0.82599532 6:-0.43011373 7:0.064898835 8:1.6125793 
0.195082959250953 4 4 0 1:-0.17797502 2:-0.084847585 3:-0.068134856 4:-0.35087704 5:0.81062736 6:1.4126284 7:0.37066217 8:-0.62012455 
2.452689960558415 4 4 0 1:-0.18899956 2:0.16387953 3:-0.068134856 4:-0.35087704 5:0.92349789 6:1.4126284 7:-0.020202251 8:-0.62012455 
0 4 0 0 1:-0.16472705 2:-0.076165256 3:-0.015075874 4:-0.35087704 5:-0.4591661 6:-0.43011373 7:1.0852692 8:-0.62012455 
4 4 4 0 1:-0.17093414 2:-0.084022087 3:-0.050448529 4:-0.35087704 5:0.27449235 6:-0.43011373 7:-0.6356221 8:-0.62012455 
0 4 4 0 1:-0.10571335 2:-0.085367835 3:-0.068134856 4:-0.35087704 5:0.6695392 6:-0.43011373 7:1.1704945 8:-0.62012455 
4 4 4 0 1:-0.17213851 2:-0.08269492 3:-0.068134856 4:-0.35087704 5:-0.62847189 6:-0.43011373 7:-0.31087674 8:-0.62012455 
4 4 4 0 1:-0.1573156 2:-0.085189995 3:-0.068134856 4:-0.35087704 5:0.81062736 6:3.2553706 7:-0.16739487 8:-0.62012455 
4 4 4 0 1:-0.13739732 2:-0.085195303 3:-0.068134856 4:-0.35087704 5:-0.20520741 6:-0.43011373 7:-0.43129903 8:-0.62012455 
4 4 4 4 1:-0.070972166 2:-0.0011617112 3:0.32096435 4:-0.35087704 5:-1.3056951 6:-0.43011373 7:-0.19592819 8:1.6125793 
0 4 4 0 1:-0.16481969 2:-0.085192649 3:-0.050448529 4:-0.35087704 5:-0.3745132 6:-0.43011373 7:-0.0043472785 8:-0.62012455 
0 4 0 4 1:-0.13887961 2:-0.08532802 3:-0.068134856 4:-0.35087704 5:0.81062736 6:-0.43011373 7:0.63969069 8:1.6125793 
4 4 4 4 1:-0.19326115 2:-0.08470956 3:-0.068134856 4:-0.35087704 5:0.61310394 6:-0.43011373 7:-0.96511127 8:-0.62012455 
4 4 4 0 1:-0.17056357 2:-0.084935178 3:-0.068134856 4:-0.35087704 5:0.50023341 6:-0.43011373 7:-0.57024783 8:1.6125793 
4 4 4 4 1:-0.15713031 2:-0.083807086 3:-0.068134856 4:-0.35087704 5:-0.17698977 6:-0.43011373 7:-0.91526031 8:1.6125793 
0 4 4 0 1:-0.092650667 2:-0.082580783 3:-0.068134856 4:-0.35087704 5:0.020533655 6:-0.43011373 7:-0.25865823 8:-0.62012455 
0 4 4 0.6456540203051097 1:0.29663592 2:0.032673097 3:-0.068134856 4:-0.35087704 5:0.64132157 6:1.4126284 7:0.53207928 8:1.6125793 
4 4 0 4 1:-0.14703221 2:-0.083934494 3:-0.068134856 4:-0.35087704 5:-1.5314361 6:-0.43011373 7:0.15420244 8:1.6125793 
4 4 4 4 1:-0.086350932 2:-0.083833629 3:-0.068134856 4:-0.35087704 5:0.35914524 6:-0.43011373 7:2.4877373 8:-0.62012455 
0.5817006907040383 3.492888157633903 0.2327609773681027 0 1:1.3076508 2:-0.032318296 3:-0.068134856 4:-0.35087704 5:0.07696892 6:-0.43011373 7:4.8934605 8:-0.62012455 
4 4 4 4 1:-0.0983019 2:-0.084024742 3:-0.068134856 4:-0.35087704 5:0.64132157 6:-0.43011373 7:-0.68552387 8:-0.62012455 
4 0 0 0 1:0.31173676 2:-0.06886318 3:-0.068134856 4:-0.35087704 5:-0.65668952 6:-0.43011373 7:0.69309336 8:1.6125793 
0 0 4 0 1:-0.16796956 2:-0.081951706 3:-0.068134856 4:-0.35087704 5:0.30270998 6:-0.43011373 7:-0.0230381 8:-0.62012455 
4 4 4 4 1:-0.16991507 2:-0.084590115 3:-0.068134856 4:-0.35087704 5:-0.93886585 6:-0.43011373 7:-0.513613 8:-0.62012455 
0 4 4 0 1:-0.12794771 2:-0.083849555 3:-0.068134856 4:-0.35087704 5:0.50023341 6:-0.43011373 7:-0.083927043 8:-0.62012455 
1.315184412177218 0 0.5846368611422214 0.3322382323851866 1:-0.13610031 2:3.0051859 3:2.9208545 4:-0.35087704 5:-1.4185656 6:-0.43011373 7:-0.1341279 8:1.6125793 
4 4 0 0 1:-0.043920361 2:-0.078373662 3:-0.068134856 4:-0.35087704 5:-0.93886585 6:-0.43011373 7:0.12660676 8:-0.62012455 
4 0 0 0 1:-0.18955542 2:-0.085301477 3:-0.068134856 4:-0.35087704 5:-0.99530111 6:-0.43011373 7:0.32407715 8:-0.62012455 
4 4 4 4 1:-0.16945185 2:-0.084783881 3:-0.068134856 4:-0.35087704 5:-1.1646069 6:-0.43011373 7:-0.97574347 8:-0.62012455 
0 4 0 0 1:-0.16778428 2:-0.085044006 3:-0.068134856 4:-0.35087704 5:-0.74134242 6:-0.43011373 7:0.90454823 8:-0.62012455 
0 4 4 0 1:-0.1485145 2:-0.084746721 3:-0.068134856 4:-0.35087704 5:0.33092761 6:1.4126284 7:-0.54200985 8:-0.62012455 
4 4 0 4 1:-0.11442181 2:-0.081757939 3:-0.068134856 4:-0.35087704 5:1.2621095 6:-0.43011373 7:-0.10684917 8:-0.62012455 
4 0 2.325256887501742 1.708052117611448 1:-0.19252 2:-0.085256353 3:-0.068134856 4:-0.35087704 5:-0.26164267 6:-0.43011373 7:1.9151819 8:1.6125793 
4 4 4 0 1:-0.19270529 2:-0.081885348 3:-0.068134856 4:-0.35087704 5:0.38736288 6:-0.43011373 7:-0.95312895 8:1.6125793 
4 4 4 0 1:0.37621641 2:0.053769752 3:0.020296781 4:-0.35087704 5:0.81062736 6:1.4126284 7:0.01195748 8:-0.62012455 
0 4 4 0 1:-0.15898318 2:0.074099304 3:-0.068134856 4:-0.35087704 5:-0.4591661 6:1.4126284 7:-0.62698525 8:-0.62012455 
4 4 4 4 1:-0.14777335 2:-0.084454744 3:-0.068134856 4:-0.35087704 5:0.838845 6:-0.43011373 7:-0.26338626 8:-0.62012455 
0 0 4 0 1:0.031769107 2:-0.078885949 3:-0.068134856 4:-0.35087704 5:0.35914524 6:-0.43011373 7:0.97041642 8:-0.62012455 
4 4 3.76284604642707 0 1:3.5433157 2:0.025591331 3:0.0026104534 4:-0.35087704 5:-0.23342504 6:-0.43011373 7:-0.54593179 8:-0.62012455 
4 0 0 0 1:-0.1884437 2:-0.0850095 3:-0.068134856 4:-0.35087704 5:-1.2774774 6:-0.43011373 7:-0.021503778 8:-0.62012455 
4 4 4 4 1:-0.17630745 2:-0.070442509 3:-0.068134856 4:-0.35087704 5:-0.93886585 6:-0.43011373 7:-0.513613 8:-0.62012455 
4 4 4 4 1:-0.080884985 2:-0.028530559 3:-0.050448529 4:0.62499101 5:-0.48738373 6:-0.43011373 7:-0.089046209 8:-0.62012455 
4 4 4 4 1:-0.1890922 2:-0.085203266 3:-0.068134856 4:-0.35087704 5:-0.23342504 6:-0.43011373 7:-0.3027714 8:1.6125793 
4 0 4 4 1:0.61273441 2:-0.05647009 3:0.0026104534 4:2.5767271 5:0.50023341 6:-0.43011373 7:-0.37571951 8:-0.62012455 
4 4 4 0 1:0.064194216 2:-0.083756654 3:-0.068134856 4:-0.35087704 5:0.020533655 6:-0.43011373 7:-0.14676141 8:1.6125793 
4 4 0 4 1:-0.1592611 2:-0.023184729 3:-0.050448529 4:-0.35087704 5:0.838845 6:-0.43011373 7:-0.26338626 8:-0.62012455 
1.100766781975416 0.932926205123005 0.6180257971964237 0.6695610387861152 1:0.019818138 2:8.6365859 3:8.0498894 4:-0.35087704 5:0.81062736 6:-0.43011373 7:-0.61577573 8:-0.62012455 
0.7594624337542955 4 4 0 1:-0.16213304 2:0.6268805 3:0.055669436 4:-0.35087704 5:0.81062736 6:1.4126284 7:-0.34674721 8:-0.62012455 
0 4 4 0.4167796540578173 1:0.21464672 2:-0.0787028 3:-0.050448529 4:-0.35087704 5:-0.85421295 6:3.2553706 7:-0.3828364 8:1.6125793 
4 4 4 4 1:-0.16102133 2:-0.084693634 3:-0.068134856 4:-0.35087704 5:0.838845 6:-0.43011373 7:-0.44147556 8:1.6125793 
0 4 4 4 1:-0.17797502 2:-0.084847585 3:-0.068134856 4:-0.35087704 5:0.81062736 6:1.4126284 7:0.90871921 8:1.6125793 
4 4 0 4 1:-0.14999679 2:-0.064740998 3:-0.032762202 4:-0.35087704 5:0.89528026 6:-0.43011373 7:0.25109394 8:1.6125793 
4 4 4 0.2961549007126051 1:1.8611011 2:0.028059863 3:-0.068134856 4:-0.35087704 5:-0.79777769 6:-0.43011373 7:-0.85277705 8:1.6125793 
0 4 4 0 1:-0.016312697 2:0.05988534 3:-0.068134856 4:-0.35087704 5:-0.48738373 6:1.4126284 7:0.31024875 8:-0.62012455 
4 4 4 4 1:-0.19511401 2:-0.085375798 3:-0.068134856 4:-0.35087704 5:-2.2650946 6:-0.43011373 7:-0.75869713 8:1.6125793 
4 4 4 0 1:-0.088018509 2:-0.08516876 3:-0.068134856 4:-0.35087704 5:0.92349789 6:1.4126284 7:-0.45621399 8:-0.62012455 
4 4 4 0 1:-0.10589864 2:-0.077030569 3:-0.068134856 4:-0.35087704 5:0.838845 6:-0.43011373 7:-0.17434161 8:-0.62012455 
4 4 4 0 1:-0.17825295 2:-0.085205921 3:-0.068134856 4:-0.35087704 5:-0.60025426 6:-0.43011373 7:-0.1811912 8:-0.62012455 
4 4 4 0 1:-0.15268344 2:-0.082647142 3:-0.068134856 4:-0.35087704 5:-1.3621303 6:-0.43011373 7:0.42670978 8:-0.62012455 
4 4 4 4 1:-0.14592049 2:-0.084874129 3:-0.068134856 4:-0.35087704 5:0.81062736 6:-0.43011373 7:-0.61577573 8:-0.62012455 
4 4 4 4 1:-0.19576251 2:-0.085373144 3:-0.068134856 4:0.62499101 5:-0.20520741 6:-0.43011373 7:0.17081242 8:-0.62012455 
4 4 4 4 1:-0.0059366622 2:-0.080913861 3:-0.050448529 4:0.62499101 5:0.838845 6:-0.43011373 7:-0.085296961 8:-0.62012455 
4 4 0 0 1:1.5228609 2:-0.025472766 3:-0.015075874 4:-0.35087704 5:0.92349789 6:-0.43011373 7:0.76461888 8:-0.62012455 
0 4 4 0 1:-0.18158811 2:-0.084754684 3:-0.068134856 4:-0.35087704 5:-1.0235187 6:1.4126284 7:-0.15559537 8:-0.62012455 
4 4 0 0 1:-0.16250362 2:-0.068804785 3:-0.068134856 4:-0.35087704 5:0.81062736 6:-0.43011373 7:-0.16739487 8:-0.62012455 
4 4 4 4 1:-0.15472159 2:-0.083743382 3:-0.068134856 4:1.6008591 5:0.27449235 6:3.2553706 7:0.29715711 8:-0.62012455 
4 0 0 4 1:-0.18835106 2:-0.085171414 3:-0.068134856 4:-0.35087704 5:-1.5314361 6:-0.43011373 7:-0.063803425 8:-0.62012455 
4 4 4 4 1:-0.13063437 2:-0.083231095 3:-0.068134856 4:-0.35087704 5:-0.14877214 6:-0.43011373 7:-0.68114715 8:-0.62012455 
0 0 4 0 1:0.26699011 2:-0.083586776 3:-0.068134856 4:-0.35087704 5:-0.2898603 6:-0.43011373 7:0.33373669 8:1.6125793 
4 4 4 4 1:-0.17677066 2:0.25287142 3:0.0026104534 4:-0.35087704 5:-1.8700477 6:-0.43011373 7:1.5949369 8:-0.62012455 
4 4 0 0 1:-0.18232925 2:-0.043262119 3:-0.050448529 4:-0.35087704 5:-1.2774774 6:-0.43011373 7:0.16721772 8:-0.62012455 
0 4 4 0 1:0.26699011 2:-0.083586776 3:-0.068134856 4:-0.35087704 5:0.30270998 6:-0.43011373 7:0.28536045 8:-0.62012455 
0.7063318113532495 0.5824487296568958 0.3959223289799994 0.4195437665801423 1:0.79227687 2:8.1642125 3:0.17947373 4:-0.35087704 5:0.6695392 6:-0.43011373 7:-0.038155675 8:1.6125793 
4 4 4 0 1:0.37630905 2:0.053759135 3:-0.015075874 4:-0.35087704 5:0.27449235 6:-0.43011373 7:-0.32469569 8:1.6125793 
4 4 4 4 1:-0.12831829 2:-0.084038013 3:-0.068134856 4:-0.35087704 5:0.81062736 6:-0.43011373 7:-0.52609956 8:-0.62012455 
1.051372617071494 4 4 0 1:0.26634161 2:-0.071307822 3:-0.050448529 4:-0.35087704 5:0.78240973 6:1.4126284 7:-0.070032164 8:-0.62012455 
4 4 4 0 1:-0.12127741 2:-0.082718809 3:-0.068134856 4:-0.35087704 5:-0.0076839777 6:-0.43011373 7:-0.1377697 8:1.6125793 
4 4 4 4 1:-0.18566441 2:-0.085022771 3:-0.068134856 4:0.62499101 5:-1.4467832 6:-0.43011373 7:0.29715711 8:-0.62012455 
4 4 4 4 1:-0.18992599 2:-0.085317403 3:-0.068134856 4:-0.35087704 5:0.78240973 6:-0.43011373 7:-0.88288262 8:-0.62012455 
4 4 0 4 1:-0.16732106 2:-0.084584806 3:-0.068134856 4:-0.35087704 5:1.1774566 6:-0.43011373 7:-0.82540834 8:1.6125793 
4 4 4 4 1:-0.089130227 2:-0.084383077 3:-0.068134856 4:-0.35087704 5:0.81062736 6:-0.43011373 7:-0.52609956 8:-0.62012455 
0 4 4 0 1:-0.19205679 2:-0.085333329 3:-0.068134856 4:-0.35087704 5:0.81062736 6:1.4126284 7:0.10163365 8:-0.62012455 
4 4 0 0 1:-0.13461802 2:-0.078819591 3:-0.068134856 4:-0.35087704 5:-1.1081716 6:-0.43011373 7:-0.11457191 8:-0.62012455 
0 4 4 0 1:-0.14564256 2:-0.079008048 3:-0.068134856 4:-0.35087704 5:0.81062736 6:1.4126284 7:-0.34674721 8:-0.62012455 
4 4 4 4 1:-0.10951172 2:-0.077779091 3:-0.068134856 4:-0.35087704 5:-0.03590161 6:-0.43011373 7:-1.1538328 8:-0.62012455 
0 0 4 0 1:0.20853227 2:-0.082509116 3:-0.068134856 4:-0.35087704 5:0.10518655 6:-0.43011373 7:0.80822005 8:-0.62012455 
4 4 4 0 1:-0.019647851 2:-0.083024057 3:-0.068134856 4:-0.35087704 5:0.5848863 6:-0.43011373 7:-0.39327094 8:-0.62012455 
1.517393378644616 0.666483644053375 0.4649541351218704 0.498433801475118 1:-0.15601859 2:0.46424143 3:8.0852621 4:-0.35087704 5:0.81062736 6:1.4126284 7:-0.61577573 8:-0.62012455 
0 4 0 0 1:-0.078846835 2:-0.084128261 3:-0.032762202 4:-0.35087704 5:-0.23342504 6:-0.43011373 7:0.54828998 8:-0.62012455 
4 4 0 4 1:-0.19381701 2:-0.085317403 3:-0.068134856 4:-0.35087704 5:-1.5314361 6:-0.43011373 7:-0.063803425 8:1.6125793 
4 4 0 4 1:-0.19557723 2:-0.085282896 3:-0.068134856 4:-0.35087704 5:-0.31807793 6:-0.43011373 7:0.59884808 8:1.6125793 
2.299954204901002 0 0 0 1:-0.034007542 2:1.8042188 3:0.091042091 4:-0.35087704 5:0.52845104 6:-0.43011373 7:-0.18861595 8:-0.62012455 
4 4 4 0 1:-0.16843278 2:-0.084844931 3:-0.068134856 4:-0.35087704 5:0.47201577 6:-0.43011373 7:-0.36968763 8:-0.62012455 
4 4 4 4 1:-0.12757714 2:-0.085128945 3:-0.068134856 4:-0.35087704 5:0.47201577 6:-0.43011373 7:-0.66374206 8:-0.62012455 
4 4 4 4 1:-0.18955542 2:-0.085301477 3:-0.068134856 4:-0.35087704 5:-0.4591661 6:-0.43011373 7:-0.36356149 8:1.6125793 
0 4 4 1.819146350138611 1:-0.036323621 2:-0.058856337 3:-0.068134856 4:-0.35087704 5:0.13340418 6:3.2553706 7:-0.073119915 8:-0.62012455 
2.706215144435295 4 4 1.795833711780596 1:-0.048830449 2:-0.073938268 3:-0.068134856 4:-0.35087704 5:0.69775683 6:-0.43011373 7:1.430412 8:-0.62012455 
4 4 4 0 1:-0.19353908 2:-0.068372128 3:-0.068134856 4:-0.35087704 5:-0.092336875 6:-0.43011373 7:-0.57381715 8:-0.62012455 
4 4 0 4 1:-0.15740824 2:-0.080783798 3:-0.068134856 4:-0.35087704 5:-0.74134242 6:-0.43011373 7:0.31643937 8:1.6125793 
4 4 4 4 1:-0.080884985 2:-0.028530559 3:-0.068134856 4:0.62499101 5:0.10518655 6:-0.43011373 7:-0.28180929 8:-0.62012455 
4 0 0 0 1:1.1133781 2:-0.04399737 3:-0.068134856 4:-0.35087704 5:-0.03590161 6:-0.43011373 7:2.1496436 8:-0.62012455 
4 4 4 4 1:-0.080884985 2:-0.028530559 3:-0.068134856 4:0.62499101 5:-0.79777769 6:-0.43011373 7:-0.40119346 8:1.6125793 
4 4 0 4 1:-0.18937013 2:-0.084932524 3:-0.068134856 4:-0.35087704 5:0.55666867 6:-0.43011373 7:0.37881455 8:1.6125793 
0 4 4 0 1:-0.15611124 2:-0.084266286 3:-0.068134856 4:-0.35087704 5:-0.54381899 6:1.4126284 7:-0.066147574 8:-0.62012455 
4 4 4 4 1:-0.056427189 2:-0.083204552 3:-0.068134856 4:0.62499101 5:0.07696892 6:-0.43011373 7:-0.71402963 8:1.6125793 
4 4 4 4 1:0.39808019 2:-0.066338907 3:-0.068134856 4:-0.35087704 5:0.41558051 6:1.4126284 7:-1.1538328 8:-0.62012455 
4 4 4 4 1:-0.17528837 2:-0.083801777 3:-0.050448529 4:-0.35087704 5:-0.79777769 6:-0.43011373 7:-0.55172132 8:1.6125793 
4 4 4 4 1:-0.13776789 2:-0.084176039 3:-0.068134856 4:-0.35087704 5:-0.34629557 6:-0.43011373 7:-0.64805915 8:-0.62012455 
4 4 4 0 1:0.011850826 2:-0.077349089 3:-0.068134856 4:-0.35087704 5:-0.14877214 6:-0.43011373 7:-0.44480434 8:-0.62012455 
4 0 0 0 1:-0.18603498 2:-0.085288205 3:-0.068134856 4:-0.35087704 5:0.92349789 6:-0.43011373 7:0.067000097 8:-0.62012455 
4 4 4 4 1:0.0036982273 2:-0.070243434 3:0.020296781 4:1.6008591 5:0.72597447 6:-0.43011373 7:0.31217771 8:-0.62012455 
4 0 0 0 1:-0.18807313 2:-0.085044006 3:-0.068134856 4:-0.35087704 5:-0.93886585 6:-0.43011373 7:1.0869364 8:1.6125793 
4 4 4 4 1:-0.14175155 2:-0.083398318 3:-0.068134856 4:-0.35087704 5:0.78240973 6:-0.43011373 7:-0.34098232 8:-0.62012455 
4 4 4 0 1:-0.0011192174 2:-0.082280843 3:-0.068134856 4:-0.35087704 5:0.81062736 6:-0.43011373 7:-0.52609956 8:1.6125793 
4 4 4 4 1:-0.1437897 2:-0.084799807 3:-0.068134856 4:-0.35087704 5:0.92349789 6:-0.43011373 7:-0.54341634 8:-0.62012455 
0 4 4 0 1:-0.072639743 2:-0.049250299 3:-0.032762202 4:-0.35087704 5:-0.40273083 6:1.4126284 7:0.52347769 8:-0.62012455 
0.3243415708661406 4 4 0 1:-0.16787692 2:-0.081893311 3:-0.068134856 4:-0.35087704 5:0.41558051 6:3.2553706 7:0.040908056 8:-0.62012455 
4 4 4 0 1:-0.15935375 2:-0.085227155 3:-0.068134856 4:-0.35087704 5:-0.71312479 6:-0.43011373 7:-0.42714654 8:-0.62012455 
4 4 4 0 1:0.1409954 2:0.034162179 3:-0.068134856 4:-0.35087704 5:0.89528026 6:-0.43011373 7:-0.45136941 8:1.6125793 
4 4 4 4 1:-0.15944639 2:-0.083228441 3:-0.068134856 4:-0.35087704 5:0.33092761 6:-0.43011373 7:2.6190753 8:-0.62012455 
0 4 4 0 1:0.31201469 2:-0.068857871 3:-0.068134856 4:-0.35087704 5:0.020533655 6:-0.43011373 7:-0.14676141 8:-0.62012455 
4 4 4 0 1:-0.16361533 2:-0.084032705 3:-0.050448529 4:-0.35087704 5:0.92349789 6:1.4126284 7:-0.63061868 8:-0.62012455 
0 4 4 0 1:-0.17797502 2:-0.084847585 3:-0.068134856 4:-0.35087704 5:0.81062736 6:1.4126284 7:0.55001452 8:-0.62012455 
0 4 0 0 1:-0.1240567 2:-0.08423178 3:-0.068134856 4:-0.35087704 5:0.81062736 6:-0.43011373 7:0.01195748 8:-0.62012455 
0 4 4 0 1:-0.068378157 2:-0.083193935 3:-0.068134856 4:-0.35087704 5:0.78240973 6:1.4126284 7:0.65250157 8:-0.62012455 
0 0.1217821296035146 4 0 1:-0.12053626 2:-0.084598078 3:-0.050448529 4:-0.35087704 5:0.81062736 6:-0.43011373 7:0.72936686 8:-0.62012455 
4 4 4 4 1:-0.0555934 2:-0.081171331 3:-0.068134856 4:-0.35087704 5:-2.1804417 6:-0.43011373 7:1.0137684 8:-0.62012455 
0 4 4 0 1:-0.097653398 2:-0.080255586 3:-0.068134856 4:-0.35087704 5:0.52845104 6:-0.43011373 7:-0.28513763 8:-0.62012455 
0 0 4 0 1:0.26699011 2:-0.083610665 3:-0.068134856 4:-0.35087704 5:0.69775683 6:-0.43011373 7:0.32287852 8:-0.62012455 
4 0 4 4 1:0.23549143 2:-0.084436163 3:-0.068134856 4:-0.35087704 5:0.61310394 6:-0.43011373 7:2.8093187 8:1.6125793 
4 2.248490874200004 4 4 1:-0.016312697 2:0.05988534 3:-0.068134856 4:0.62499101 5:0.38736288 6:-0.43011373 7:-0.35101751 8:-0.62012455 
4 4 0 1.352099728949733 1:-0.013440759 2:-0.072043073 3:-0.068134856 4:-0.35087704 5:-1.1363893 6:-0.43011373 7:-0.10013774 8:-0.62012455 
4 4 4 0 1:-0.17797502 2:-0.084847585 3:-0.068134856 4:-0.35087704 5:0.92349789 6:1.4126284 7:-0.020202251 8:-0.62012455 
0 0 4 0 1:-0.18288511 2:-0.085264316 3:-0.050448529 4:-0.35087704 5:-0.62847189 6:1.4126284 7:1.937006 8:-0.62012455 
0 3.644998724901081 0 0 1:-0.16417119 2:-0.084810425 3:-0.068134856 4:-0.35087704 5:-0.65668952 6:-0.43011373 7:0.8351646 8:-0.62012455 
4 4 4 4 1:-0.16166983 2:-0.081314665 3:-0.068134856 4:-0.35087704 5:-0.62847189 6:-0.43011373 7:-0.45136941 8:1.6125793 
4 4 4 0 1:-0.1824219 2:-0.085176723 3:-0.068134856 4:-0.35087704 5:-1.616089 6:-0.43011373 7:0.68534402 8:-0.62012455 
4 0 0 4 1:-0.12285234 2:-0.077587979 3:-0.068134856 4:-0.35087704 5:1.3467624 6:-0.43011373 7:0.26865553 8:-0.62012455 
4 4 0 2.04888657004239 1:-0.13591503 2:-0.08426894 3:-0.068134856 4:-0.35087704 5:-0.40273083 6:-0.43011373 7:0.52347769 8:1.6125793 
4 4 0 4 1:-0.11090137 2:-0.082785167 3:-0.068134856 4:-0.35087704 5:-1.1928245 6:-0.43011373 7:-0.2506656 8:-0.62012455 
4 4 4 0 1:-0.00056335844 2:-0.08401147 3:-0.068134856 4:-0.35087704 5:-1.1646069 6:-0.43011373 7:0.62706024 8:-0.62012455 
0 0 4 0 1:1.220103 2:-0.045130771 3:-0.068134856 4:-0.35087704 5:0.52845104 6:-0.43011373 7:0.29399247 8:1.6125793 
4 4 4 0 1:-0.13711939 2:-0.081527012 3:-0.050448529 4:-0.35087704 5:0.64132157 6:-0.43011373 7:-0.68552387 8:1.6125793 
4 4 0 0 1:-0.11145723 2:-0.08395042 3:-0.068134856 4:-0.35087704 5:-0.74134242 6:-0.43011373 7:0.022384942 8:-0.62012455 
4 4 4 4 1:-0.14990414 2:-0.084943141 3:-0.068134856 4:-0.35087704 5:-1.8982654 6:-0.43011373 7:-0.31087674 8:1.6125793 
4 4 4 4 1:-0.14295591 2:-0.083459368 3:-0.068134856 4:-0.35087704 5:0.6695392 6:-0.43011373 7:-0.68896731 8:-0.62012455 
4 4 4 4 1:-0.1661167 2:-0.085243081 3:-0.068134856 4:-0.35087704 5:-1.5596538 6:-0.43011373 7:-0.93200224 8:-0.62012455 
4 4 0 4 1:-0.17223115 2:-0.085046661 3:0.10872842 4:-0.35087704 5:1.2338919 6:-0.43011373 7:-0.42435159 8:1.6125793 
4 4 4 4 1:-0.18232925 2:-0.084943141 3:-0.068134856 4:-0.35087704 5:-1.8700477 6:-0.43011373 7:-1.1538328 8:-0.62012455 
4 4 4 4 1:-0.13897225 2:-0.080924478 3:-0.068134856 4:-0.35087704 5:0.92349789 6:-0.43011373 7:-0.28180929 8:-0.62012455 
4 4 0 4 1:-0.14008397 2:-0.082004793 3:-0.068134856 4:-0.35087704 5:1.0081508 6:-0.43011373 7:0.21312295 8:1.6125793 
4 4 4 4 1:-0.14721749 2:-0.084956413 3:-0.068134856 4:0.62499101 5:-0.88243058 6:-0.43011373 7:-0.37331793 8:-0.62012455 
4 4 0 4 1:-0.1776971 2:-0.085341292 3:-0.068134856 4:-0.35087704 5:1.2056742 6:-0.43011373 7:-0.33806887 8:-0.62012455 
0 4 4 0 1:-0.084034853 2:0.29840919 3:-0.015075874 4:-0.35087704 5:0.78240973 6:1.4126284 7:-0.61193247 8:-0.62012455 
4 4 4 0 1:-0.18899956 2:-0.084144187 3:-0.015075874 4:-0.35087704 5:-0.57203663 6:-0.43011373 7:-0.054324909 8:-0.62012455 
4 4 4 0 1:-0.16176247 2:-0.083753999 3:-0.068134856 4:-0.35087704 5:-0.17698977 6:-0.43011373 7:-0.43811539 8:-0.62012455 
4 4 0 4 1:-0.17658538 2:-0.085012154 3:-0.050448529 4:-0.35087704 5:1.0363684 6:-0.43011373 7:0.37367144 8:1.6125793 
4 4 4 0 1:1.3361849 2:0.1361842 3:0.69237722 4:-0.35087704 5:1.4596329 6:-0.43011373 7:0.0026617794 8:-0.62012455 
0 4 4 0 1:-0.13887961 2:-0.08532802 3:-0.068134856 4:-0.35087704 5:0.81062736 6:-0.43011373 7:0.99839538 8:-0.62012455 
4 4 4 4 1:-0.17223115 2:-0.066925515 3:-0.015075874 4:-0.35087704 5:0.92349789 6:-0.43011373 7:-0.28180929 8:-0.62012455 
0 4 0 0 1:0.090226946 2:0.12856626 3:-0.050448529 4:-0.35087704 5:-0.68490716 6:-0.43011373 7:0.71408115 8:-0.62012455 
4 4 4 4 1:-0.11145723 2:-0.08395042 3:-0.068134856 4:0.62499101 5:-1.8700477 6:-0.43011373 7:-0.8789558 8:-0.62012455 
4 4 4 0 1:-0.17806767 2:-0.085205921 3:-0.068134856 4:-0.35087704 5:-1.6725243 6:-0.43011373 7:0.27760199 8:-0.62012455 
0 4 0 4 1:-0.17816031 2:-0.084521102 3:-0.068134856 4:-0.35087704 5:0.81062736 6:-0.43011373 7:0.46033835 8:1.6125793 
0 4 0 0 1:-0.1403619 2:-0.084606041 3:-0.068134856 4:-0.35087704 5:0.07696892 6:-0.43011373 7:1.045183 8:-0.62012455 
4 4 4 0 1:-0.069860448 2:-0.065638163 3:-0.032762202 4:-0.35087704 5:0.81062736 6:-0.43011373 7:-0.16739487 8:-0.62012455 
4 4 0 4 1:-0.15740824 2:-0.080783798 3:-0.068134856 4:-0.35087704 5:-0.48738373 6:-0.43011373 7:0.57644539 8:1.6125793 
4 4 0 0 1:-0.14675428 2:-0.084637893 3:-0.068134856 4:-0.35087704 5:0.838845 6:-0.43011373 7:0.0037476897 8:-0.62012455 
4 4 4 4 1:-0.10728829 2:-0.08426894 3:-0.068134856 4:0.62499101 5:-0.17698977 6:-0.43011373 7:0.27760199 8:-0.62012455 
4 4 0 4 1:-0.13554445 2:-0.08235251 3:-0.068134856 4:-0.35087704 5:1.0363684 6:-0.43011373 7:-0.050635285 8:-0.62012455 
4 4 4 0 1:-0.15435102 2:-0.083597394 3:-0.068134856 4:-0.35087704 5:-0.62847189 6:1.4126284 7:-0.73235476 8:-0.62012455 
4 4 0 0 1:-0.18288511 2:-0.085264316 3:-0.050448529 4:-0.35087704 5:-1.1081716 6:-0.43011373 7:0.23184837 8:-0.62012455 
4 1.578249297949748 0 0 1:-0.16463441 2:-0.084191965 3:-0.068134856 4:-0.35087704 5:-0.85421295 6:-0.43011373 7:-0.074437857 8:-0.62012455 
0 0 4 0 1:0.24466311 2:-0.082291461 3:-0.068134856 4:-0.35087704 5:0.44379814 6:-0.43011373 7:0.52549369 8:-0.62012455 
4 0 0 0 1:-0.15629652 2:-0.084988265 3:-0.068134856 4:-0.35087704 5:0.92349789 6:-0.43011373 7:0.15420244 8:-0.62012455 
0 4 4 0 1:-0.18927749 2:-0.085290859 3:-0.068134856 4:-0.35087704 5:0.33092761 6:1.4126284 7:-0.64398033 8:-0.62012455 
4 4 0 4 1:-0.094132958 2:-0.083846901 3:-0.068134856 4:-0.35087704 5:-0.26164267 6:-0.43011373 7:0.073773095 8:1.6125793 
4 4 0 4 1:-0.11812754 2:-0.084619313 3:-0.068134856 4:-0.35087704 5:-0.31807793 6:-0.43011373 7:-0.027109367 8:1.6125793 
4 0 0 4 1:-0.15462895 2:-0.081577445 3:-0.068134856 4:-0.35087704 5:-1.7289596 6:-0.43011373 7:-0.41004804 8:-0.62012455 
4 4 4 4 1:-0.16000225 2:-0.085219192 3:-0.068134856 4:-0.35087704 5:0.5848863 6:-0.43011373 7:-0.48834117 8:-0.62012455 
4 4 0 0 1:-0.080884985 2:-0.028530559 3:-0.050448529 4:-0.35087704 5:-1.1928245 6:-0.43011373 7:0.2912347 8:-0.62012455 
4 4 0 4 1:-0.16796956 2:-0.081949052 3:-0.068134856 4:-0.35087704 5:0.89528026 6:-0.43011373 7:-0.18794566 8:1.6125793 
0 0 4 0 1:-0.15620388 2:-0.079345149 3:-0.068134856 4:-0.35087704 5:0.18983945 6:-0.43011373 7:0.014971805 8:-0.62012455 
4 4 4 4 1:-0.0011192174 2:-0.082278189 3:-0.068134856 4:-0.35087704 5:0.81062736 6:-0.43011373 7:-0.61577573 8:-0.62012455 
4 4 4 0 1:-0.19224207 2:-0.085282896 3:-0.068134856 4:-0.35087704 5:0.47201577 6:-0.43011373 7:-0.46770577 8:-0.62012455 
4 4 4 0 1:-0.16926657 2:-0.073176474 3:-0.068134856 4:-0.35087704 5:0.81062736 6:1.4126284 7:-0.52609956 8:-0.62012455 
4 4 4 0 1:-0.17195322 2:-0.084794499 3:-0.068134856 4:-0.35087704 5:0.6695392 6:-0.43011373 7:-0.41004804 8:-0.62012455 
4 4 0 4 1:-0.14230741 2:-0.084913944 3:-0.068134856 4:-0.35087704 5:2.1650737 6:-0.43011373 7:-0.21721496 8:-0.62012455 
4 4 4 4 1:-0.18223661 2:-0.08508913 3:-0.068134856 4:-0.35087704 5:-1.5314361 6:-0.43011373 7:-0.71782103 8:-0.62012455 
4 4 0 0 1:-0.19428022 2:-0.085365181 3:-0.068134856 4:-0.35087704 5:0.78240973 6:-0.43011373 7:-0.070032164 8:-0.62012455 
0 0 1.212043870138865 0 1:1.1133781 2:-0.04399737 3:-0.032762202 4:-0.35087704 5:-0.31807793 6:-0.43011373 7:2.4767204 8:1.6125793 
4 4 4 4 1:-0.16213304 2:-0.085245736 3:-0.068134856 4:-0.35087704 5:0.18983945 6:-0.43011373 7:-0.72881292 8:-0.62012455 
0 0 2.639449238567514 0 1:0.092543025 2:-0.068069534 3:-0.068134856 4:-0.35087704 5:0.35914524 6:-0.43011373 7:1.9819637 8:1.6125793 
4 0 0 0 1:0.02834131 2:0.29023649 3:-0.068134856 4:-0.35087704 5:-0.4591661 6:-0.43011373 7:0.2949979 8:1.6125793 
1.320456250631191 0.3282389410599089 0.6857465354238879 3.864318588337425 1:0.62181344 2:-0.034677999 3:-0.068134856 4:-0.35087704 5:-1.5314361 6:5.0981128 7:-0.063803425 8:1.6125793 
0 4 4 0 1:-0.072454457 2:-0.078984159 3:-0.050448529 4:-0.35087704 5:0.6695392 6:1.4126284 7:-0.31707495 8:-0.62012455 
4 4 4 0 1:-0.14091776 2:-0.0850095 3:-0.068134856 4:-0.35087704 5:-1.5596538 6:-0.43011373 7:0.6208115 8:1.6125793 
0 4 4 0.106797415557066 1:0.31201469 2:-0.068857871 3:-0.068134856 4:-0.35087704 5:0.6695392 6:-0.43011373 7:1.63536 8:-0.62012455 
4 4 0 0 1:-0.18927749 2:-0.08530944 3:-0.068134856 4:-0.35087704 5:-0.96708348 6:-0.43011373 7:-0.1811912 8:-0.62012455 
0 4 4 0 1:-0.12387141 2:-0.055254404 3:0.14410107 4:-0.35087704 5:0.81062736 6:-0.43011373 7:0.10163365 8:-0.62012455 
0 0 4 0 1:0.24466311 2:-0.082291461 3:-0.068134856 4:-0.35087704 5:0.41558051 6:-0.43011373 7:0.83740194 8:-0.62012455 
4 4 4 2.813020268418621 1:-0.18501591 2:-0.084924561 3:-0.068134856 4:-0.35087704 5:0.7541921 6:-0.43011373 7:-0.97189981 8:1.6125793 
4 4 4 4 1:-0.19177886 2:-0.085277588 3:-0.068134856 4:-0.35087704 5:0.47201577 6:-0.43011373 7:-0.85977834 8:-0.62012455 
0 4 4 0 1:0.12126241 2:-0.065301062 3:-0.068134856 4:-0.35087704 5:-0.14877214 6:-0.43011373 7:-0.20846152 8:-0.62012455 
4 4 4 0 1:-0.19455815 2:-0.084890055 3:-0.068134856 4:-0.35087704 5:-0.71312479 6:-0.43011373 7:-0.42714654 8:-0.62012455 
4 4 4 4 1:-0.0070483802 2:-0.083674369 3:-0.068134856 4:-0.35087704 5:-0.85421295 6:-0.43011373 7:-0.69123495 8:-0.62012455 
4 4 4 0 1:-0.013440759 2:-0.072043073 3:-0.068134856 4:-0.35087704 5:-0.65668952 6:-0.43011373 7:-0.017262846 8:-0.62012455 
0 4 0 0 1:-0.16250362 2:-0.080661699 3:-0.068134856 4:-0.35087704 5:-0.62847189 6:-0.43011373 7:0.9535573 8:-0.62012455 
4 4 0 4 1:-0.15138644 2:-0.060440975 3:-0.050448529 4:-0.35087704 5:1.1774566 6:-0.43011373 7:-0.49698392 8:1.6125793 
0 4 4 0 1:0.0010115754 2:-0.082376399 3:-0.068134856 4:-0.35087704 5:0.81062736 6:1.4126284 7:-0.34674721 8:-0.62012455 
4 4 4 0 1:-0.1890922 2:-0.07442932 3:-0.068134856 4:-0.35087704 5:0.020533655 6:-0.43011373 7:-0.59434868 8:-0.62012455 
4 4 4 0 1:-0.097004896 2:-0.081343863 3:-0.068134856 4:-0.35087704 5:-1.7289596 6:-0.43011373 7:0.58166493 8:1.6125793 
0 4 4 0 1:-0.18492326 2:-0.085351909 3:-0.068134856 4:-0.35087704 5:0.81062736 6:1.4126284 7:-0.16739487 8:-0.62012455 
4 4 4 4 1:-0.13776789 2:-0.083390355 3:-0.068134856 4:-0.35087704 5:-1.8136125 6:-0.43011373 7:0.16328602 8:-0.62012455 
0 4 0 1.933944313430062 1:0.29756236 2:0.19967589 3:-0.015075874 4:-0.35087704 5:-0.62847189 6:-0.43011373 7:1.3750353 8:-0.62012455 
4 4 4 4 1:-0.10793679 2:-0.084322027 3:-0.068134856 4:-0.35087704 5:-1.5878714 6:-0.43011373 7:-0.2506656 8:-0.62012455 
4 4 4 4 1:-0.18418212 2:-0.085046661 3:-0.068134856 4:-0.35087704 5:-0.3745132 6:-0.43011373 7:-0.89839155 8:-0.62012455 
4 4 0 0 1:0.028433953 2:0.29146545 3:-0.068134856 4:-0.35087704 5:0.6695392 6:-0.43011373 7:-0.13112877 8:1.6125793 
4 4 0 4 1:-0.13211666 2:-0.08079707 3:-0.068134856 4:-0.35087704 5:-1.1928245 6:-0.43011373 7:-0.2506656 8:-0.62012455 
0 1.710015139552434 0 0 1:-0.16528291 2:-0.084717523 3:-0.068134856 4:-0.35087704 5:0.78240973 6:-0.43011373 7:0.020284553 8:-0.62012455 
4 4 0 4 1:-0.060225559 2:-0.084019433 3:-0.068134856 4:-0.35087704 5:0.89528026 6:-0.43011373 7:-0.27575358 8:1.6125793 
4 4 4 4 1:-0.17686331 2:-0.084733449 3:-0.068134856 4:-0.35087704 5:-0.43094846 6:1.4126284 7:-0.89312472 8:1.6125793 
4 4 4 4 1:-0.092650667 2:-0.084627276 3:-0.068134856 4:1.6008591 5:-0.17698977 6:-0.43011373 7:0.27760199 8:-0.62012455 
0 4 4 0 1:-0.14332648 2:-0.083063872 3:-0.068134856 4:-0.35087704 5:-0.2898603 6:1.4126284 7:-0.1621198 8:-0.62012455 
0 4 0 0 1:-0.10145177 2:-0.078333847 3:0.020296781 4:-0.35087704 5:0.89528026 6:-0.43011373 7:0.25109394 8:-0.62012455 
4 0 0 0 1:0.26041245 2:-0.083228441 3:-0.068134856 4:-0.35087704 5:-0.85421295 6:-0.43011373 7:0.85075778 8:1.6125793 
4 4 4 0 1:0.31201469 2:-0.068857871 3:-0.068134856 4:-0.35087704 5:-0.88243058 6:-0.43011373 7:1.0316088 8:-0.62012455 
4 0 4 0 1:-0.11886868 2:-0.076085626 3:-0.068134856 4:-0.35087704 5:-0.4591661 6:-0.43011373 7:2.1389642 8:1.6125793 
4 4 4 4 1:-0.10571335 2:-0.084900672 3:-0.068134856 4:0.62499101 5:0.52845104 6:-0.43011373 7:0.48703583 8:-0.62012455 
4 4 0 4 1:-0.18974071 2:-0.085256353 3:-0.068134856 4:-0.35087704 5:-0.60025426 6:-0.43011373 7:-0.042242405 8:1.6125793 
4 4 4 0 1:-0.1030267 2:-0.083910605 3:-0.068134856 4:-0.35087704 5:-0.62847189 6:-0.43011373 7:-0.31087674 8:-0.62012455 
4 4 0 4 1:-0.016220054 2:0.059720771 3:-0.068134856 4:-0.35087704 5:-1.0235187 6:-0.43011373 7:-0.48834117 8:-0.62012455 
4 4 0 4 1:-0.19177886 2:-0.085341292 3:-0.068134856 4:-0.35087704 5:-1.390348 6:-0.43011373 7:-0.55172132 8:1.6125793 
4 4 0 4 1:0.2671754 2:-0.076531554 3:-0.068134856 4:-0.35087704 5:1.37498 6:-0.43011373 7:-0.60407884 8:1.6125793 
4 4 0 4 1:-0.016220054 2:0.059280151 3:-0.068134856 4:-0.35087704 5:-0.99530111 6:-0.43011373 7:-0.0043472785 8:-0.62012455 
4 4 4 4 1:-0.13776789 2:-0.083390355 3:-0.068134856 4:-0.35087704 5:-2.2933122 6:-0.43011373 7:0.069813076 8:-0.62012455 
0 4 4 0 1:0.031769107 2:-0.078885949 3:-0.050448529 4:-0.35087704 5:0.78240973 6:-0.43011373 7:-0.070032164 8:-0.62012455 
4 4 4 4 1:-0.1667652 2:0.28325559 3:0.44476864 4:-0.35087704 5:-1.7289596 6:-0.43011373 7:-0.90590453 8:-0.62012455 
4 4 4 0 1:-0.17287965 2:-0.085182032 3:-0.068134856 4:-0.35087704 5:-0.34629557 6:-0.43011373 7:-0.52161575 8:-0.62012455 
0 4 4 0 1:-0.11229102 2:-0.082580783 3:-0.068134856 4:-0.35087704 5:0.69775683 6:-0.43011373 7:-0.046299304 8:-0.62012455 
0 4 4 0 1:0.17471752 2:-0.071804183 3:-0.068134856 4:-0.35087704 5:-0.12055451 6:-0.43011373 7:-0.21721496 8:-0.62012455 
0 0 0 4 1:-0.12498313 2:-0.084643202 3:-0.068134856 4:-0.35087704 5:0.35914524 6:-0.43011373 7:0.97041642 8:1.6125793 
4 4 0 0 1:-0.18214397 2:-0.080807687 3:-0.068134856 4:-0.35087704 5:0.33092761 6:-0.43011373 7:0.27375405 8:1.6125793 
0 4 0 0 1:0.31201469 2:-0.068857871 3:-0.068134856 4:-0.35087704 5:-0.57203663 6:-0.43011373 7:0.6328675 8:-0.62012455 
0 0 0.8016676694457805 0 1:-0.039566132 2:-0.081877385 3:-0.068134856 4:-0.35087704 5:-0.12055451 6:-0.43011373 7:0.25109394 8:-0.62012455 
4 4 0 0 1:-0.18177339 2:-0.079177926 3:-0.068134856 4:-0.35087704 5:1.0081508 6:-0.43011373 7:0.042253485 8:-0.62012455 
0 4 4 0 1:-0.16361533 2:-0.082562203 3:0.020296781 4:-0.35087704 5:0.048751287 6:-0.43011373 7:-0.26651064 8:-0.62012455 
0 0 4 0 1:1.1143972 2:-0.044023913 3:-0.068134856 4:-0.35087704 5:-0.23342504 6:-0.43011373 7:0.18354939 8:1.6125793 
0 4 0 0 1:-0.1410104 2:-0.078047179 3:-0.068134856 4:-0.35087704 5:-1.5596538 6:1.4126284 7:-0.26651064 8:-0.62012455 
0 4 0 0 1:-0.19252 2:-0.085256353 3:-0.068134856 4:-0.35087704 5:-0.23342504 6:-0.43011373 7:1.5209315 8:-0.62012455 
4 4 4 4 1:-0.057168334 2:-0.082729426 3:-0.068134856 4:-0.35087704 5:0.38736288 6:-0.43011373 7:-0.55172132 8:-0.62012455 
4 4 4 0 1:-0.19252 2:-0.08524839 3:-0.068134856 4:-0.35087704 5:-0.17698977 6:-0.43011373 7:-0.19954293 8:-0.62012455 
4 4 4 4 1:-0.13572974 2:-0.08371153 3:-0.068134856 4:0.62499101 5:0.78240973 6:-0.43011373 7:-0.97319934 8:-0.62012455 
3.056426405280076 0 0 0 1:4.7807505 2:0.14179812 3:-0.068134856 4:-0.35087704 5:-0.48738373 6:-0.43011373 7:0.70954371 8:-0.62012455 
4 0 0 0.3539238526940148 1:-0.016220054 2:0.28850852 3:-0.068134856 4:-0.35087704 5:0.020533655 6:-0.43011373 7:-0.48245186 8:-0.62012455 
4 4 4 0 1:-0.17528837 2:-0.084781227 3:-0.068134856 4:-0.35087704 5:0.27449235 6:-0.43011373 7:-0.42833783 8:-0.62012455 
4 4 4 4 1:-0.16509762 2:-0.083377084 3:-0.068134856 4:-0.35087704 5:0.78240973 6:-0.43011373 7:-0.34098232 8:-0.62012455 
4 4 4 4 1:-0.081070271 2:-0.084138878 3:-0.068134856 4:-0.35087704 5:-0.62847189 6:-0.43011373 7:-0.45136941 8:1.6125793 
0 4 4 4 1:-0.099691548 2:-0.08385221 3:-0.068134856 4:-0.35087704 5:-0.4591661 6:1.4126284 7:-0.36356149 8:1.6125793 
4 4 4 4 1:-0.19177886 2:-0.085110365 3:-0.068134856 4:0.62499101 5:0.020533655 6:-0.43011373 7:-0.034864592 8:-0.62012455 
4 4 4 0 1:0.061600207 2:-0.081572136 3:-0.068134856 4:-0.35087704 5:-0.03590161 6:-0.43011373 7:-0.47035491 8:-0.62012455 
4 4 0 0 1:2.7237943 2:0.034926628 3:-0.068134856 4:-0.35087704 5:-0.93886585 6:-0.43011373 7:0.44671665 8:-0.62012455 
0 3.470478094515975 0 0 1:0.31201469 2:-0.068855217 3:-0.068134856 4:-0.35087704 5:-0.57203663 6:-0.43011373 7:1.045183 8:-0.62012455 
4 4 0 0 1:-0.19168621 2:-0.085277588 3:-0.068134856 4:-0.35087704 5:-1.0235187 6:-0.43011373 7:-0.32196827 8:-0.62012455 
4 4 4 0 1:-0.15296137 2:-0.084996228 3:-0.068134856 4:-0.35087704 5:-1.616089 6:-0.43011373 7:0.68534402 8:-0.62012455 
4 4 1.222461699274469 0 1:-0.14545727 2:-0.083562887 3:-0.032762202 4:-0.35087704 5:0.07696892 6:-0.43011373 7:0.055625878 8:1.6125793 
4 4 0 4 1:-0.1796426 2:-0.084974993 3:-0.068134856 4:-0.35087704 5:0.92349789 6:-0.43011373 7:-0.28180929 8:-0.62012455 
4 4 4 4 1:-0.13934282 2:-0.085030734 3:-0.068134856 4:-0.35087704 5:0.27449235 6:-0.43011373 7:-1.0501906 8:-0.62012455 
0 3.987971864945954 0 0 1:0.13710439 2:-0.081086393 3:-0.068134856 4:-0.35087704 5:-0.74134242 6:-0.43011373 7:1.0515754 8:-0.62012455 
4 4 0 0 1:-0.1566671 2:-0.083942457 3:-0.068134856 4:-0.35087704 5:0.838845 6:-0.43011373 7:0.0037476897 8:-0.62012455 
4 4 4 4 1:-0.1375826 2:-0.084045976 3:-0.068134856 4:-0.35087704 5:0.92349789 6:-0.43011373 7:-0.28180929 8:-0.62012455 
4 4 4 0 1:-0.15601859 2:-0.084003507 3:-0.068134856 4:-0.35087704 5:0.41558051 6:-0.43011373 7:-1.1538328 8:1.6125793 
4 4 4 0 1:-0.16787692 2:-0.084614004 3:-0.068134856 4:-0.35087704 5:0.50023341 6:-0.43011373 7:-0.8620403 8:1.6125793 
4 4 4 0 1:-0.08190406 2:-0.084061902 3:-0.068134856 4:-0.35087704 5:-1.1363893 6:-0.43011373 7:0.42670978 8:-0.62012455 
4 4 4 0 1:-0.15240551 2:-0.084775918 3:-0.068134856 4:-0.35087704 5:0.30270998 6:-0.43011373 7:-0.74263471 8:1.6125793 
0 4 0 0 1:0.5234264 2:0.018666171 3:-0.068134856 4:-0.35087704 5:-0.40273083 6:-0.43011373 7:0.65250157 8:-0.62012455 
4 4 4 4 1:0.62209137 2:0.054080309 3:-0.050448529 4:0.62499101 5:0.5848863 6:-0.43011373 7:-0.39327094 8:-0.62012455 
0 4 0 0 1:-0.12118476 2:-0.084316718 3:-0.050448529 4:-0.35087704 5:-0.65668952 6:-0.43011373 7:0.40895088 8:-0.62012455 
4 0 4 4 1:-0.080884985 2:-0.028530559 3:-0.068134856 4:0.62499101 5:-0.96708348 6:-0.43011373 7:-0.66751199 8:-0.62012455 
0 0 0 0.9304512023975475 1:0.40391671 2:2.4709134 3:1.9481065 4:0.62499101 5:0.44379814 6:-0.43011373 7:0.031574143 8:1.6125793 
4 4 4 0 1:-0.079495337 2:-0.084284866 3:-0.068134856 4:-0.35087704 5:0.10518655 6:-0.43011373 7:-0.39081223 8:-0.62012455 
4 0 0 0 1:-0.13202401 2:-0.063328891 3:-0.068134856 4:-0.35087704 5:0.97993316 6:-0.43011373 7:0.30843789 8:-0.62012455 
4 4 4 4 1:-0.17677066 2:-0.084826351 3:-0.068134856 4:-0.35087704 5:0.18983945 6:-0.43011373 7:-0.94132285 8:1.6125793 
4 0 0 0 1:-0.13387688 2:-0.084738758 3:-0.068134856 4:-0.35087704 5:-0.88243058 6:-0.43011373 7:0.87550581 8:1.6125793 
4 4 4 4 1:-0.18946278 2:-0.075111485 3:0.091042091 4:0.62499101 5:-0.23342504 6:1.4126284 7:1.156191 8:-0.62012455 
3.943585511549886 4 1.204722964487947 3.03381489290862 1:-0.16213304 2:0.62702648 3:1.1168491 4:-0.35087704 5:0.92349789 6:-0.43011373 7:-0.36901164 8:-0.62012455 
0 4 4 0 1:-0.19576251 2:-0.085322711 3:-0.068134856 4:-0.35087704 5:0.10518655 6:-0.43011373 7:-0.063803425 8:-0.62012455 
4 4 4 4 1:-0.10867794 2:-0.07796224 3:-0.068134856 4:-0.35087704 5:0.838845 6:-0.43011373 7:-0.70860952 8:-0.62012455 
4 4 4 4 1:-0.13081965 2:-0.08217467 3:-0.068134856 4:-0.35087704 5:1.2903271 6:1.4126284 7:-0.91375036 8:-0.62012455 
0 3.510697402851345 0 0 1:-0.076993972 2:-0.079868053 3:-0.050448529 4:-0.35087704 5:-0.092336875 6:-0.43011373 7:0.35420783 8:-0.62012455 
4 4 4 0 1:-0.14777335 2:-0.058139667 3:-0.068134856 4:-0.35087704 5:0.21805708 6:-0.43011373 7:-0.20550724 8:1.6125793 
0 4 2.239046870793508 0 1:0.37621641 2:0.053769752 3:-0.015075874 4:-0.35087704 5:-0.34629557 6:-0.43011373 7:0.11060127 8:-0.62012455 
4 4 4 0 1:-0.19066714 2:-0.085338637 3:-0.068134856 4:-0.35087704 5:-0.40273083 6:-0.43011373 7:-0.50871336 8:-0.62012455 
4 4 0 0 1:-0.15360987 2:-0.083302762 3:-0.068134856 4:-0.35087704 5:-0.85421295 6:-0.43011373 7:0.69655851 8:-0.62012455 
4 4 4 4 1:-0.10506485 2:-0.08169689 3:-0.068134856 4:-0.35087704 5:0.81062736 6:-0.43011373 7:-0.43642339 8:-0.62012455 
4 4 0 4 1:-0.1871467 2:-0.085171414 3:-0.068134856 4:-0.35087704 5:-0.34629557 6:-0.43011373 7:0.36348808 8:1.6125793 
4 4 4 4 1:-0.019369922 2:-0.071095476 3:-0.068134856 4:-0.35087704 5:0.838845 6:-0.43011373 7:-0.26338626 8:-0.62012455 
4 4 4 0 1:-0.13545181 2:0.19549266 3:-0.068134856 4:-0.35087704 5:0.55666867 6:-0.43011373 7:-0.67488048 8:1.6125793 
4 4 4 4 1:-0.094410887 2:-0.083355849 3:-0.068134856 4:-0.35087704 5:0.89528026 6:-0.43011373 7:-0.36356149 8:-0.62012455 
0 4 0 0 1:0.31173676 2:-0.068879106 3:-0.068134856 4:-0.35087704 5:-0.68490716 6:-0.43011373 7:0.71408115 8:-0.62012455 
0 4 4 0 1:-0.17741917 2:-0.08434857 3:-0.068134856 4:-0.35087704 5:0.020533655 6:-0.43011373 7:-0.034864592 8:-0.62012455 
0 0 4 0 1:0.49739367 2:-0.064645442 3:-0.068134856 4:-0.35087704 5:0.020533655 6:-0.43011373 7:0.5246195 8:1.6125793 
4 4 4 4 1:-0.10293406 2:-0.034805407 3:-0.050448529 4:-0.35087704 5:0.89528026 6:-0.43011373 7:-0.53917733 8:1.6125793 
0 4 0 0 1:-0.16982243 2:-0.084746721 3:-0.050448529 4:-0.35087704 5:-0.20520741 6:-0.43011373 7:0.17081242 8:-0.62012455 
4 0 0 0 1:-0.089408156 2:-0.080106943 3:-0.068134856 4:-0.35087704 5:-0.57203663 6:-0.43011373 7:0.77030599 8:1.6125793 
4 4 4 0 1:-0.17714124 2:-0.084797153 3:-0.068134856 4:-0.35087704 5:0.7541921 6:-0.43011373 7:-0.24416799 8:-0.62012455 
4 0.2936796006586248 4 0 1:-0.17130472 2:-0.084786536 3:-0.068134856 4:-0.35087704 5:-1.7007419 6:-0.43011373 7:1.2777712 8:1.6125793 
0 0 4 0 1:-0.16278155 2:-0.085240427 3:-0.068134856 4:-0.35087704 5:0.27449235 6:-0.43011373 7:-0.013769291 8:-0.62012455 
0 4 4 0 1:-0.016220054 2:0.059280151 3:-0.068134856 4:-0.35087704 5:0.92349789 6:1.4126284 7:0.85182123 8:-0.62012455 
4 4 4 0 1:-0.16537555 2:-0.084438818 3:-0.068134856 4:-0.35087704 5:-0.34629557 6:-0.43011373 7:-0.26872894 8:-0.62012455 
4 4 4 4 1:-0.12266705 2:-0.081601334 3:-0.068134856 4:-0.35087704 5:-0.85421295 6:-0.43011373 7:-0.69123495 8:-0.62012455 
4 0 0 0 1:-0.15583331 2:-0.084465361 3:-0.068134856 4:-0.35087704 5:-1.1081716 6:-0.43011373 7:0.058638228 8:-0.62012455 
4 4 4 4 1:-0.080884985 2:-0.028530559 3:-0.050448529 4:0.62499101 5:-1.3056951 6:-0.43011373 7:1.1451382 8:-0.62012455 
4 4 4 4 1:-0.17945732 2:-0.08462993 3:-0.068134856 4:-0.35087704 5:-1.0517364 6:-0.43011373 7:-0.81665036 8:1.6125793 
4 4 4 0 1:-0.1918715 2:-0.085272279 3:-0.068134856 4:-0.35087704 5:0.47201577 6:-0.43011373 7:-0.46770577 8:-0.62012455 
4 4 0 0 1:2.64338 2:0.47443673 3:0.020296781 4:-0.35087704 5:0.7541921 6:-0.43011373 7:0.028731441 8:-0.62012455 
4 4 0 4 1:-0.15611124 2:-0.083159428 3:-0.068134856 4:-0.35087704 5:-1.6443067 6:-0.43011373 7:-0.68552387 8:1.6125793 
4 4 0 4 1:-0.084961284 2:-0.075244201 3:-0.068134856 4:-0.35087704 5:-1.4750009 6:-0.43011373 7:-0.31087674 8:-0.62012455 
4 0 0 4 1:-0.084034853 2:0.29840919 3:-0.032762202 4:-0.35087704 5:0.50023341 6:-0.43011373 7:-0.57024783 8:-0.62012455 
4 4 4 0 1:-0.15425837 2:-0.085049315 3:-0.068134856 4:-0.35087704 5:-1.3339127 6:-0.43011373 7:0.40239374 8:-0.62012455 
4 4 4 4 1:-0.067544369 2:-0.081906582 3:-0.068134856 4:2.5767271 5:-0.0076839777 6:-0.43011373 7:1.5556687 8:-0.62012455 
0 4 4 0 1:-0.17797502 2:-0.084847585 3:-0.068134856 4:-0.35087704 5:0.81062736 6:1.4126284 7:0.280986 8:-0.62012455 
4 4 4 4 1:0.23067399 2:-0.060966533 3:-0.050448529 4:-0.35087704 5:1.0081508 6:-0.43011373 7:-0.38492018 8:1.6125793 
4 4 4 0 1:-0.063468069 2:-0.084149495 3:-0.068134856 4:-0.35087704 5:0.78240973 6:-0.43011373 7:-0.43129903 8:1.6125793 
4 4 0 0 1:-0.12757714 2:-0.085128945 3:-0.068134856 4:-0.35087704 5:-1.0235187 6:-0.43011373 7:0.010777531 8:-0.62012455 
4 4 4 4 1:0.23419443 2:-0.067286505 3:0.020296781 4:-0.35087704 5:-1.0517364 6:-0.43011373 7:0.026305668 8:-0.62012455 
4 4 4 4 1:-0.14888507 2:-0.083987581 3:-0.068134856 4:0.62499101 5:0.18983945 6:1.4126284 7:-0.41004804 8:-0.62012455 
4 0 4 4 1:-0.16120661 2:-0.084988265 3:-0.068134856 4:-0.35087704 5:-2.0675711 6:-0.43011373 7:-0.50540506 8:-0.62012455 
4 4 4 4 1:-0.063931285 2:-0.059511958 3:0.091042091 4:-0.35087704 5:1.1774566 6:-0.43011373 7:-0.3327717 8:-0.62012455 
4 4 0 4 1:-0.18575705 2:-0.085290859 3:-0.068134856 4:-0.35087704 5:-1.1081716 6:-0.43011373 7:-0.28778206 8:1.6125793 
0 0 0.758559035540325 0 1:0.1946358 2:0.52132821 3:1.1699081 4:-0.35087704 5:-0.3745132 6:-0.43011373 7:1.0174176 8:1.6125793 
4 4 4 4 1:-0.15333194 2:-0.061590302 3:-0.032762202 4:2.5767271 5:0.838845 6:-0.43011373 7:-0.35243091 8:-0.62012455 
4 4 0 4 1:-0.1755663 2:-0.083971655 3:-0.068134856 4:-0.35087704 5:-0.82599532 6:-0.43011373 7:-0.39212552 8:1.6125793 
4 2.924326214407196 1.483629619118124 0 1:1.5912316 2:-0.0011670198 3:-0.068134856 4:-0.35087704 5:-1.8700477 6:-0.43011373 7:-0.32920187 8:1.6125793 
4 4 0 4 1:-0.15249815 2:-0.084767955 3:-0.068134856 4:-0.35087704 5:0.81062736 6:-0.43011373 7:0.280986 8:1.6125793 
4 4 4 0 1:-0.19390965 2:-0.07884348 3:-0.068134856 4:-0.35087704 5:-1.5032185 6:-0.43011373 7:0.77496492 8:-0.62012455 
4 4 4 4 1:-0.16463441 2:-0.084191965 3:-0.068134856 4:-0.35087704 5:-0.74134242 6:-0.43011373 7:-0.71275113 8:-0.62012455 
0 4 4 0 1:-0.19113035 2:-0.00080603028 3:-0.068134856 4:-0.35087704 5:-0.65668952 6:1.4126284 7:0.55102212 8:-0.62012455 
4 0 0 0 1:-0.039566132 2:-0.081877385 3:-0.068134856 4:-0.35087704 5:1.0081508 6:-0.43011373 7:0.29855768 8:-0.62012455 
0 4 4 0 1:-0.15740824 2:-0.084733449 3:-0.068134856 4:-0.35087704 5:0.6695392 6:-0.43011373 7:-0.13112877 8:-0.62012455 
4 4 4 4 1:-0.08190406 2:-0.084061902 3:-0.068134856 4:-0.35087704 5:-1.2210422 6:-0.43011373 7:-0.60407884 8:-0.62012455 
2.91089933327627 4 4 4 1:-0.13619296 2:-0.074554074 3:-0.068134856 4:-0.35087704 5:0.18983945 6:-0.43011373 7:2.140071 8:-0.62012455 
0 4 4 0 1:-0.13081965 2:-0.082179979 3:-0.068134856 4:-0.35087704 5:0.838845 6:1.4126284 7:-0.26338626 8:-0.62012455 
4 4 4 4 1:-0.17278701 2:-0.084377768 3:-0.068134856 4:-0.35087704 5:-1.6725243 6:-0.43011373 7:-0.67668785 8:-0.62012455 
0 4 4 0 1:-0.013996618 2:-0.079987498 3:-0.068134856 4:-0.35087704 5:0.92349789 6:1.4126284 7:-0.36901164 8:-0.62012455 
4 0 0 0 1:-0.16630199 2:-0.084990919 3:-0.068134856 4:-0.35087704 5:0.92349789 6:-0.43011373 7:0.15420244 8:-0.62012455 
4 4 4 4 1:-0.17186058 2:-0.082655105 3:-0.068134856 4:-0.35087704 5:-0.51560136 6:-0.43011373 7:-0.48126147 8:1.6125793 
4 4 0 0 1:-0.16713577 2:-0.083188626 3:-0.050448529 4:-0.35087704 5:0.89528026 6:-0.43011373 7:-0.18794566 8:-0.62012455 
0 4 4 0 1:-0.021037499 2:-0.076218342 3:-0.068134856 4:-0.35087704 5:0.6695392 6:-0.43011373 7:1.1704945 8:-0.62012455 
0 1.352180840708791 0 0 1:-0.19140828 2:-0.085237773 3:-0.068134856 4:-0.35087704 5:-2.0111359 6:1.4126284 7:-0.53703568 8:-0.62012455 
0 4 4 0 1:-0.16444912 2:-0.085333329 3:-0.068134856 4:-0.35087704 5:0.47201577 6:1.4126284 7:-0.36968763 8:-0.62012455 
4 1.9543881105966 0 0 1:3.8419973 2:0.061016086 3:-0.068134856 4:-0.35087704 5:-0.85421295 6:-0.43011373 7:0.85075778 8:-0.62012455 
4 4 0 4 1:-0.16778428 2:-0.083549616 3:-0.068134856 4:-0.35087704 5:0.97993316 6:-0.43011373 7:-0.29367356 8:-0.62012455 
4 0 0 4 1:-0.19474344 2:-0.085354563 3:-0.068134856 4:-0.35087704 5:-1.6725243 6:-0.43011373 7:-0.19954293 8:-0.62012455 
0 4 4 0 1:-0.19205679 2:-0.085282896 3:-0.068134856 4:-0.35087704 5:-0.85421295 6:1.4126284 7:0.38815996 8:-0.62012455 
4 4 4 0 1:-0.1890922 2:-0.074431975 3:-0.068134856 4:-0.35087704 5:-0.0076839777 6:-0.43011373 7:-0.2506656 8:1.6125793 
4 4 4 4 1:-0.13721203 2:-0.080690897 3:-0.068134856 4:1.6008591 5:-0.4591661 6:-0.43011373 7:0.2949979 8:-0.62012455 
0 4 4 0 1:-0.18751727 2:-0.085282896 3:-0.068134856 4:-0.35087704 5:0.50023341 6:-0.43011373 7:-0.083927043 8:-0.62012455 
4 0.6670380779379213 0 0 1:-0.16018754 2:-0.084943141 3:-0.068134856 4:-0.35087704 5:-1.1363893 6:-0.43011373 7:0.25109394 8:-0.62012455 
0.7817395091697809 4 4 0 1:-0.18455269 2:-0.084905981 3:-0.050448529 4:-0.35087704 5:0.81062736 6:1.4126284 7:0.01195748 8:-0.62012455 
0 4 4 4 1:0.1409954 2:0.034164833 3:0.356337 4:-0.35087704 5:0.92349789 6:-0.43011373 7:-0.020202251 8:1.6125793 
4 4 4 4 1:-0.18103225 2:-0.081160714 3:-0.068134856 4:-0.35087704 5:0.13340418 6:-0.43011373 7:-1.0457615 8:1.6125793 
4 4 4 4 1:-0.12489049 2:-0.08379116 3:-0.032762202 4:-0.35087704 5:0.81062736 6:-0.43011373 7:-0.61577573 8:-0.62012455 
4 0 0 0 1:-0.19381701 2:-0.085317403 3:-0.068134856 4:-0.35087704 5:-0.91064822 6:-0.43011373 7:0.26865553 8:-0.62012455 
4 4 4 4 1:-0.16796956 2:-0.081949052 3:-0.068134856 4:-0.35087704 5:0.69775683 6:-0.43011373 7:-0.69236049 8:-0.62012455 
4 4 4 4 1:-0.17630745 2:0.10409594 3:-0.068134856 4:-0.35087704 5:-0.26164267 6:-0.43011373 7:-0.9083116 8:-0.62012455 
4 4 4 4 1:-0.16389326 2:-0.085020117 3:-0.068134856 4:-0.35087704 5:-2.0957888 6:-0.43011373 7:0.50989623 8:-0.62012455 
4 4 4 4 1:0.059191485 2:-0.081160714 3:-0.068134856 4:-0.35087704 5:-0.34629557 6:-0.43011373 7:-0.90094596 8:1.6125793 
4 4 0 0 1:-0.10932644 2:-0.08461135 3:-0.068134856 4:-0.35087704 5:-1.0517364 6:-0.43011373 7:0.026305668 8:-0.62012455 
4 4 0 0 1:-0.19483608 2:-0.077651683 3:-0.068134856 4:-0.35087704 5:-0.91064822 6:-0.43011373 7:0.74281829 8:-0.62012455 
4 4 4 4 1:-0.1199804 2:-0.082355165 3:-0.068134856 4:-0.35087704 5:-0.43094846 6:-0.43011373 7:-1.0234787 8:1.6125793 
4 4 4 4 1:-0.16129925 2:-0.084096409 3:-0.068134856 4:-0.35087704 5:-1.390348 6:-0.43011373 7:-0.75242514 8:1.6125793 
0 0 3.482368973788033 0 1:0.0169462 2:-0.08025824 3:-0.068134856 4:-0.35087704 5:0.18983945 6:-0.43011373 7:0.54624661 8:-0.62012455 
0 4 4 0 1:-0.16926657 2:-0.073176474 3:-0.068134856 4:-0.35087704 5:0.78240973 6:1.4126284 7:-0.34098232 8:-0.62012455 
4 4 4 4 1:-0.13730467 2:-0.083679678 3:-0.068134856 4:0.62499101 5:-0.03590161 6:1.4126284 7:-0.81209384 8:-0.62012455 
4 4 4 4 1:-0.17973524 2:-0.085115673 3:-0.068134856 4:-0.35087704 5:0.78240973 6:-0.43011373 7:-0.43129903 8:-0.62012455 
4 4 4 0 1:-0.12896679 2:-0.083844247 3:-0.050448529 4:-0.35087704 5:0.838845 6:-0.43011373 7:-0.17434161 8:-0.62012455 
4 0 4 4 1:-0.13813846 2:-0.084555609 3:-0.068134856 4:0.62499101 5:0.048751287 6:-0.43011373 7:-0.59925644 8:-0.62012455 
4 4 4 4 1:-0.17880881 2:-0.073702033 3:-0.068134856 4:-0.35087704 5:-0.65668952 6:-0.43011373 7:-1.0117615 8:-0.62012455 
0.8706666637647536 4 0 0 1:0.02834131 2:0.29023649 3:-0.068134856 4:-0.35087704 5:0.5848863 6:-0.43011373 7:-0.10806026 8:1.6125793 
4 4 4 4 1:-0.16046547 2:-0.08524839 3:-0.068134856 4:0.62499101 5:-1.7853948 6:-0.43011373 7:-0.37968948 8:-0.62012455 
0 0 4 0 1:-0.07050895 2:-0.080879355 3:-0.068134856 4:-0.35087704 5:-0.0076839777 6:-0.43011373 7:0.20091799 8:-0.62012455 
4 4 0 4 1:-0.18381154 2:-0.083937148 3:-0.068134856 4:-0.35087704 5:-1.2774774 6:-0.43011373 7:-0.39894678 8:-0.62012455 
0 4 4 0 1:-0.19252 2:-0.085256353 3:-0.068134856 4:-0.35087704 5:0.24627471 6:-0.43011373 7:-0.31784332 8:-0.62012455 
0 4 4 0 1:-0.17371344 2:-0.085166106 3:-0.068134856 4:-0.35087704 5:-0.092336875 6:-0.43011373 7:-0.10980466 8:-0.62012455 
4 4 0 0 1:-0.14610578 2:-0.084725486 3:-0.068134856 4:-0.35087704 5:0.24627471 6:-0.43011373 7:0.20465008 8:1.6125793 
2.755738168643874 4 4 0 1:0.37621641 2:0.053769752 3:-0.015075874 4:-0.35087704 5:0.18983945 6:1.4126284 7:-0.516303 8:-0.62012455 
0 4 4 0 1:-0.023075648 2:-0.082336584 3:-0.050448529 4:-0.35087704 5:-0.82599532 6:-0.43011373 7:1.131289 8:-0.62012455 
4 4 4 0 1:-0.17741917 2:-0.084343262 3:-0.068134856 4:-0.35087704 5:-0.0076839777 6:-0.43011373 7:-0.36356149 8:1.6125793 
4 4 4 4 1:-0.18149547 2:-0.085312094 3:-0.068134856 4:-0.35087704 5:-0.79777769 6:-0.43011373 7:-0.70224918 8:1.6125793 
4 4 4 0 1:-0.13906489 2:-0.084619313 3:-0.068134856 4:-0.35087704 5:0.69775683 6:-0.43011373 7:-0.32318267 8:-0.62012455 
0 4 0 4 1:-0.18492326 2:-0.085351909 3:-0.068134856 4:-0.35087704 5:0.81062736 6:-0.43011373 7:0.72936686 8:1.6125793 
0 4 0.4223437016347072 4 1:-0.17445458 2:0.22848074 3:0.58625926 4:-0.35087704 5:0.50023341 6:-0.43011373 7:0.11060127 8:1.6125793 
4 4 4 0 1:-0.17037829 2:-0.084544991 3:-0.068134856 4:-0.35087704 5:-0.51560136 6:-0.43011373 7:-0.21223295 8:-0.62012455 
4 4 0 0 1:-0.1796426 2:-0.084974993 3:-0.068134856 4:-0.35087704 5:0.92349789 6:-0.43011373 7:-0.020202251 8:-0.62012455 
3.117393972260611 4 0 4 1:-0.19261265 2:-0.085277588 3:-0.068134856 4:-0.35087704 5:0.52845104 6:-0.43011373 7:0.39051415 8:1.6125793 
4 4 4 0 1:-0.18093961 2:-0.085314748 3:-0.068134856 4:-0.35087704 5:0.81062736 6:1.4126284 7:-0.88480425 8:-0.62012455 
4 4 4 0 1:-0.028078379 2:-0.063323583 3:-0.068134856 4:-0.35087704 5:-0.14877214 6:-0.43011373 7:-0.44480434 8:-0.62012455 
4 0 0 4 1:-0.14286326 2:-0.0848874 3:-0.068134856 4:-0.35087704 5:-0.62847189 6:-0.43011373 7:0.81306463 8:1.6125793 
4 4 4 0 1:-0.13387688 2:-0.084738758 3:-0.068134856 4:-0.35087704 5:-0.96708348 6:-0.43011373 7:0.9535573 8:-0.62012455 
4 4 4 4 1:-0.080884985 2:-0.028530559 3:-0.068134856 4:0.62499101 5:-0.93886585 6:-0.43011373 7:-0.19350312 8:-0.62012455 
4 4 4 4 1:0.23790016 2:-0.070445164 3:-0.050448529 4:-0.35087704 5:0.61310394 6:-0.43011373 7:-0.49330752 8:-0.62012455 
4 4 4 4 1:-0.19159357 2:-0.085325366 3:-0.068134856 4:-0.35087704 5:-2.0675711 6:-0.43011373 7:-1.1538328 8:1.6125793 
4 4 0 4 1:-0.15277608 2:-0.084778573 3:-0.068134856 4:-0.35087704 5:0.81062736 6:-0.43011373 7:0.280986 8:1.6125793 
4 4 4 4 1:-0.17714124 2:-0.083448751 3:-0.068134856 4:-0.35087704 5:-0.48738373 6:-0.43011373 7:-0.35524285 8:1.6125793 
4 4 4 4 1:0.073921748 2:-0.083477949 3:-0.068134856 4:-0.35087704 5:0.16162182 6:-0.43011373 7:-0.93952192 8:1.6125793 
0 4 4 0 1:0.080128841 2:-0.082947082 3:-0.068134856 4:-0.35087704 5:0.89528026 6:-0.43011373 7:0.075478103 8:-0.62012455 
4 4 4 4 1:-0.02400208 2:-0.0809988 3:-0.068134856 4:-0.35087704 5:0.92349789 6:-0.43011373 7:-0.36901164 8:1.6125793 
4 1.390851954299589 4 4 1:-0.037435339 2:-0.083146157 3:-0.068134856 4:2.5767271 5:0.64132157 6:-0.43011373 7:-0.59186209 8:-0.62012455 
4 4 0 4 1:-0.1837189 2:-0.085264316 3:-0.068134856 4:-0.35087704 5:-1.5596538 6:-0.43011373 7:-0.48834117 8:1.6125793 
0 4 4 0 1:0.25392742 2:-0.074015244 3:-0.068134856 4:-0.35087704 5:-0.26164267 6:-0.43011373 7:0.073773095 8:-0.62012455 
0 4 4 0 1:0.31201469 2:-0.068855217 3:-0.068134856 4:-0.35087704 5:-0.26164267 6:-0.43011373 7:0.56481544 8:-0.62012455 
0 4 4 0 1:-0.17890146 2:-0.085314748 3:-0.068134856 4:-0.35087704 5:0.16162182 6:1.4126284 7:0.024876929 8:-0.62012455 
0 4 0 0 1:-0.15277608 2:-0.082588746 3:-0.032762202 4:-0.35087704 5:-0.0076839777 6:-0.43011373 7:0.53960568 8:-0.62012455 
0 0 4 0 1:-0.079217408 2:-0.081957015 3:-0.068134856 4:-0.35087704 5:0.35914524 6:-0.43011373 7:0.97041642 8:-0.62012455 
4 4 4 0 1:-0.17565895 2:-0.085131599 3:-0.068134856 4:-0.35087704 5:-0.26164267 6:1.4126284 7:-0.78555101 8:1.6125793 
4 4 4 0 1:-0.19437287 2:-0.082798439 3:-0.068134856 4:-0.35087704 5:-0.17698977 6:-0.43011373 7:-0.55740162 8:-0.62012455 
4 1.783862317605504 4 4 1:-0.18483062 2:-0.084990919 3:-0.068134856 4:0.62499101 5:-1.1081716 6:-0.43011373 7:-0.63420234 8:-0.62012455 
4 4 4 4 1:-0.14629106 2:-0.083024057 3:-0.068134856 4:-0.35087704 5:0.838845 6:-0.43011373 7:-0.44147556 8:-0.62012455 
4 4 4 4 1:-0.13369159 2:-0.077394213 3:-0.068134856 4:-0.35087704 5:0.81062736 6:1.4126284 7:-0.25707104 8:1.6125793 
4 0 4 0 1:-0.19214943 2:-0.074835434 3:-0.068134856 4:-0.35087704 5:-0.91064822 6:-0.43011373 7:1.8491981 8:-0.62012455 
4 0 4 0 1:-0.19214943 2:-0.074835434 3:0.0026104534 4:-0.35087704 5:-0.88243058 6:-0.43011373 7:1.8121236 8:-0.62012455 
4 4 4 4 1:-0.064857717 2:-0.081375715 3:-0.068134856 4:-0.35087704 5:-1.1081716 6:-0.43011373 7:-0.63420234 8:1.6125793 
4 4 4 4 1:0.1287665 2:-0.075976798 3:-0.068134856 4:-0.35087704 5:0.81062736 6:-0.43011373 7:-0.52609956 8:-0.62012455 
4 4 4 0 1:-0.12192591 2:-0.084940487 3:-0.068134856 4:-0.35087704 5:-1.5596538 6:-0.43011373 7:0.39898096 8:-0.62012455 
4 4 4 0 1:-0.15675974 2:-0.084767955 3:-0.068134856 4:-0.35087704 5:0.30270998 6:-0.43011373 7:-0.43423616 8:1.6125793 
4 4 4 4 1:-0.13526652 2:-0.083820358 3:-0.068134856 4:-0.35087704 5:0.838845 6:-0.43011373 7:-0.44147556 8:-0.62012455 
0 4 4 0 1:-0.19085243 2:-0.084829005 3:-0.032762202 4:-0.35087704 5:-0.064119243 6:-0.43011373 7:0.11060127 8:-0.62012455 
4 4 4 0 1:-0.11747904 2:-0.085033389 3:-0.068134856 4:-0.35087704 5:0.61310394 6:-0.43011373 7:-0.77638977 8:1.6125793 
4 4 4 0 1:-0.16759899 2:-0.075299942 3:-0.068134856 4:-0.35087704 5:0.21805708 6:-0.43011373 7:-0.62698525 8:1.6125793 
4 4 4 4 1:-0.13619296 2:-0.083323997 3:-0.068134856 4:-0.35087704 5:-2.1804417 6:-0.43011373 7:-0.43129903 8:1.6125793 
4 4 0 0 1:-0.039566132 2:-0.081877385 3:-0.068134856 4:-0.35087704 5:0.92349789 6:-0.43011373 7:-0.020202251 8:-0.62012455 
0 4 4 0 1:-0.15416573 2:-0.083892025 3:-0.068134856 4:-0.35087704 5:0.6695392 6:3.2553706 7:-0.22410186 8:-0.62012455 
4 4 4 0 1:-0.10904851 2:-0.083424862 3:-0.068134856 4:-0.35087704 5:0.81062736 6:1.4126284 7:-0.52609956 8:-0.62012455 
4 4 0 4 1:0.02834131 2:0.29023649 3:-0.068134856 4:-0.35087704 5:-0.54381899 6:-0.43011373 7:-0.20210822 8:-0.62012455 
4 3.564064689167537 1.813171376750012 0 1:2.6455108 2:0.75492562 3:1.1522217 4:0.62499101 5:0.72597447 6:-0.43011373 7:-0.51245318 8:-0.62012455 
4 4 4 0 1:-0.15601859 2:-0.084523757 3:-0.068134856 4:-0.35087704 5:0.95171553 6:3.2553706 7:0.058638228 8:-0.62012455 
4 4 4 4 1:-0.19437287 2:-0.085349255 3:-0.068134856 4:-0.35087704 5:-0.43094846 6:-0.43011373 7:-0.7627707 8:-0.62012455 
1.193482076129144 0.7041718593102095 0.4695338217235405 0.5198946565287332 1:-0.13610031 2:3.0097115 3:7.5546723 4:-0.35087704 5:0.838845 6:-0.43011373 7:-0.26338626 8:-0.62012455 
0 0 4 0 1:0.22113174 2:-0.075621117 3:-0.068134856 4:-0.35087704 5:0.69775683 6:-0.43011373 7:0.23058406 8:-0.62012455 
0 4 4 0.1014078103997151 1:0.12524606 2:-0.082620598 3:-0.068134856 4:-0.35087704 5:-0.88243058 6:1.4126284 7:-0.84162683 8:-0.62012455 
4 0 0 0 1:-0.13387688 2:-0.084738758 3:-0.068134856 4:-0.35087704 5:-1.0517364 6:-0.43011373 7:0.026305668 8:-0.62012455 
4 4 4 4 1:-0.15907582 2:-0.083265602 3:-0.068134856 4:-0.35087704 5:0.92349789 6:-0.43011373 7:-0.71782103 8:-0.62012455 
4 4 4 0 1:-0.14971886 2:-0.084133569 3:-0.068134856 4:-0.35087704 5:0.44379814 6:-0.43011373 7:-0.36356149 8:-0.62012455 
4 0 0 0 1:-0.1918715 2:-0.085272279 3:-0.068134856 4:-0.35087704 5:-1.0235187 6:-0.43011373 7:0.17715043 8:-0.62012455 
4 4 4 4 1:-0.084498068 2:0.12259931 3:-0.068134856 4:0.62499101 5:-0.03590161 6:1.4126284 7:-0.58426789 8:1.6125793 
4 4 4 0 1:-0.16806221 2:-0.084101717 3:-0.068134856 4:-0.35087704 5:-0.68490716 6:-0.43011373 7:-0.43540434 8:-0.62012455 
4 4 4 0.7638469582776956 1:-0.019555208 2:-0.082692265 3:-0.068134856 4:-0.35087704 5:0.81062736 6:3.2553706 7:-0.79512808 8:1.6125793 
4 4 4 0 1:-0.08014384 2:-0.082986897 3:-0.068134856 4:-0.35087704 5:-1.3339127 6:-0.43011373 7:0.59692206 8:-0.62012455 
4 4 0 0 1:-0.072639743 2:-0.049250299 3:-0.050448529 4:-0.35087704 5:-0.74134242 6:-0.43011373 7:0.022384942 8:-0.62012455 
4 4 0 4 1:-0.15249815 2:-0.082787821 3:-0.068134856 4:-0.35087704 5:-1.5596538 6:-0.43011373 7:-0.48834117 8:-0.62012455 
0 4 4 0 1:-0.084034853 2:0.29840919 3:0.0026104534 4:-0.35087704 5:0.78240973 6:1.4126284 7:-0.52161575 8:-0.62012455 
0 4 0 0 1:-0.18362626 2:-0.085126291 3:-0.068134856 4:-0.35087704 5:-0.4591661 6:-0.43011373 7:0.9535573 8:-0.62012455 
4 4 4 4 1:-0.18927749 2:-0.084964376 3:-0.050448529 4:0.62499101 5:0.86706263 6:-0.43011373 7:-0.35803512 8:-0.62012455 
4 4 4 4 1:-0.16213304 2:-0.083369121 3:-0.068134856 4:-0.35087704 5:-1.390348 6:-0.43011373 7:-1.1538328 8:-0.62012455 
0 4 4 4 1:-0.11979512 2:-0.083761962 3:-0.068134856 4:-0.35087704 5:0.92349789 6:1.4126284 7:0.067000097 8:1.6125793 
4 4 4 4 1:-0.1843674 2:-0.08380974 3:-0.068134856 4:0.62499101 5:0.35914524 6:-0.43011373 7:2.6900467 8:-0.62012455 
4 4 4 0 1:-0.11275423 2:-0.067058232 3:-0.068134856 4:-0.35087704 5:-0.71312479 6:-0.43011373 7:-0.42714654 8:-0.62012455 
0 4 0 1.176607063185529 1:0.02834131 2:0.29023649 3:-0.068134856 4:-0.35087704 5:0.838845 6:-0.43011373 7:0.18183699 8:1.6125793 
0 4 4 0 1:0.070864524 2:-0.080879355 3:-0.068134856 4:-0.35087704 5:0.89528026 6:-0.43011373 7:-0.10013774 8:-0.62012455 
4 4 4 4 1:-0.19085243 2:-0.08524839 3:-0.068134856 4:-0.35087704 5:-2.5190533 6:-0.43011373 7:-0.60407884 8:1.6125793 
4 4 4 4 1:0.025747301 2:-0.083655789 3:-0.068134856 4:-0.35087704 5:0.838845 6:-0.43011373 7:-0.44147556 8:-0.62012455 
4 0 0 0 1:-0.11988776 2:-0.083347886 3:-0.068134856 4:-0.35087704 5:-0.54381899 6:-0.43011373 7:0.069813076 8:-0.62012455 
0 4 4 4 1:-0.18529384 2:-0.084653819 3:-0.068134856 4:-0.35087704 5:0.5848863 6:1.4126284 7:-0.29820071 8:1.6125793 
4 4 4 0 1:-0.17380608 2:-0.08502808 3:-0.068134856 4:-0.35087704 5:-1.9829183 6:-0.43011373 7:0.35144585 8:1.6125793 
4 4 4 4 1:0.26736068 2:-0.08149516 3:-0.068134856 4:-0.35087704 5:-1.926483 6:-0.43011373 7:-1.1538328 8:-0.62012455 
4 4 0 4 1:-0.16463441 2:-0.084191965 3:-0.068134856 4:-0.35087704 5:-1.2210422 6:-0.43011373 7:-0.23757622 8:1.6125793 
0 0.459992968650602 2.178068498083292 0.4914698724331181 1:-0.15277608 2:-0.069725839 3:-0.068134856 4:-0.35087704 5:-1.7853948 6:-0.43011373 7:9.1680778 8:1.6125793 
4 4 2.270132101580065 4 1:0.53194957 2:0.018745801 3:-0.068134856 4:-0.35087704 5:-1.3339127 6:-0.43011373 7:-0.1811912 8:-0.62012455 
4 0 0 0 1:-0.1802911 2:-0.083138194 3:-0.068134856 4:-0.35087704 5:-0.2898603 6:-0.43011373 7:0.70562905 8:1.6125793 
4 4 4 0 1:-0.043827718 2:-0.079767188 3:-0.068134856 4:-0.35087704 5:-1.7289596 6:-0.43011373 7:0.58166493 8:1.6125793 
4 4 4 4 1:-0.1654682 2:-0.084791844 3:-0.068134856 4:-0.35087704 5:0.69775683 6:-0.43011373 7:-0.41547713 8:-0.62012455 
4 4 4 4 1:-0.17825295 2:-0.085147525 3:-0.068134856 4:-0.35087704 5:-0.03590161 6:-0.43011373 7:-0.58426789 8:1.6125793 
4 4 4 4 1:-0.19474344 2:-0.085264316 3:-0.068134856 4:-0.35087704 5:-0.40273083 6:-0.43011373 7:-0.89578501 8:-0.62012455 
4 4 4 4 1:-0.080884985 2:-0.028530559 3:-0.068134856 4:0.62499101 5:-0.40273083 6:-0.43011373 7:-0.12164172 8:-0.62012455 
4 4 4 0 1:-0.19270529 2:-0.085184686 3:-0.068134856 4:-0.35087704 5:0.47201577 6:1.4126284 7:-0.95779648 8:1.6125793 
3.720956155065804 4 4 0 1:-0.12266705 2:-0.083907951 3:-0.068134856 4:-0.35087704 5:0.89528026 6:1.4126284 7:-0.27575358 8:-0.62012455 
4 4 4 0 1:-0.012977543 2:-0.077187175 3:-0.068134856 4:-0.35087704 5:0.07696892 6:-0.43011373 7:-0.27422648 8:1.6125793 
4 4 4 4 1:-0.16426384 2:-0.084725486 3:-0.068134856 4:1.6008591 5:-0.96708348 6:-0.43011373 7:0.79145037 8:1.6125793 
4 4 4 0 1:-0.18140282 2:-0.084412274 3:-0.068134856 4:-0.35087704 5:-1.3339127 6:-0.43011373 7:0.40239374 8:-0.62012455 
0 4 0 0 1:-0.015015693 2:-0.08083954 3:-0.068134856 4:-0.35087704 5:-1.8982654 6:1.4126284 7:-0.87284743 8:-0.62012455 
0 0 0 4 1:0.078090691 2:-0.076244886 3:-0.068134856 4:-0.35087704 5:0.69775683 6:-0.43011373 7:1.1535286 8:1.6125793 
4 4 4 0 1:-0.15138644 2:-0.084539683 3:-0.068134856 4:-0.35087704 5:0.64132157 6:-0.43011373 7:-0.31087674 8:-0.62012455 
4 4 4 4 1:-0.14277062 2:-0.084860857 3:-0.068134856 4:0.62499101 5:-0.12055451 6:-0.43011373 7:-0.21721496 8:1.6125793 
4 4 4 4 1:-0.095985821 2:-0.084077828 3:-0.068134856 4:-0.35087704 5:-0.91064822 6:-0.43011373 7:-0.83772426 8:-0.62012455 
4 1.182135614206272 4 4 1:-0.10812208 2:-0.056162187 3:0.020296781 4:2.5767271 5:0.5848863 6:-0.43011373 7:0.17715043 8:1.6125793 
4 4 4 4 1:-0.19177886 2:-0.085110365 3:-0.068134856 4:0.62499101 5:-0.48738373 6:-0.43011373 7:0.70954371 8:1.6125793 
4 4 4 4 1:-0.16796956 2:-0.081949052 3:-0.068134856 4:-0.35087704 5:0.92349789 6:-0.43011373 7:-0.45621399 8:-0.62012455 
4 4 0 0 1:-0.18168075 2:-0.085054624 3:-0.068134856 4:-0.35087704 5:-1.2492598 6:-0.43011373 7:0.33373669 8:-0.62012455 
0 4 4 0 1:-0.044661506 2:-0.049690918 3:-0.068134856 4:-0.35087704 5:0.020533655 6:1.4126284 7:-0.14676141 8:-0.62012455 
4 4 4 0.7884154411761125 1:-0.16565348 2:-0.08447067 3:-0.068134856 4:-0.35087704 5:0.838845 6:-0.43011373 7:-0.26338626 8:-0.62012455 
4 4 0 0 1:0.31201469 2:-0.068857871 3:-0.068134856 4:-0.35087704 5:-0.76956005 6:-0.43011373 7:0.63125058 8:-0.62012455 
4 0 0 4 1:-0.18520119 2:-0.085049315 3:-0.068134856 4:-0.35087704 5:-1.4750009 6:-0.43011373 7:-0.10013774 8:-0.62012455 
0 4 0 0 1:0.21510994 2:-0.074564692 3:-0.068134856 4:-0.35087704 5:0.7541921 6:-0.43011373 7:0.48356383 8:1.6125793 
3.437743910330579 4 0 0 1:-0.039566132 2:-0.081877385 3:-0.068134856 4:-0.35087704 5:0.89528026 6:-0.43011373 7:-0.012329817 8:-0.62012455 
0 4 4 4 1:-0.13656353 2:-0.079167308 3:-0.032762202 4:-0.35087704 5:0.81062736 6:1.4126284 7:0.10163365 8:1.6125793 
4 4 4 0 1:-0.16871071 2:-0.085245736 3:-0.068134856 4:-0.35087704 5:-1.7853948 6:-0.43011373 7:0.39445381 8:-0.62012455 
4 0 0 4 1:-0.084034853 2:0.29840919 3:-0.015075874 4:-0.35087704 5:0.7541921 6:-0.43011373 7:-0.42610095 8:-0.62012455 
4 4 4 1.773477925875329 1:-0.12313027 2:0.068387175 3:0.037983108 4:-0.35087704 5:0.81062736 6:-0.43011373 7:-0.52609956 8:1.6125793 
4 4 0 4 1:-0.16917392 2:-0.082684302 3:-0.068134856 4:-0.35087704 5:1.1774566 6:-0.43011373 7:-0.16855949 8:-0.62012455 
4 4 4 4 1:-0.17028564 2:-0.085099747 3:-0.068134856 4:-0.35087704 5:-2.0111359 6:-0.43011373 7:1.6217541 8:-0.62012455 
0 4 0 0 1:-0.054574325 2:-0.083127576 3:-0.068134856 4:-0.35087704 5:0.81062736 6:-0.43011373 7:0.01195748 8:-0.62012455 
4 4 4 4 1:-0.18770256 2:-0.085038697 3:-0.068134856 4:-0.35087704 5:0.838845 6:-0.43011373 7:-0.79765417 8:-0.62012455 
4 4 4 0 1:-0.14286326 2:-0.0848874 3:-0.068134856 4:-0.35087704 5:-1.1646069 6:-0.43011373 7:0.62706024 8:-0.62012455 
2.678517117206241 0.6931045713942268 1.61824203785032 0.7025348427270394 1:2.5073798 2:0.21466758 3:3.6459939 4:-0.35087704 5:-1.8700477 6:-0.43011373 7:-0.054324909 8:-0.62012455 
4 4 1.850529232599783 0 1:-0.18751727 2:-0.084818388 3:-0.068134856 4:-0.35087704 5:-1.3621303 6:-0.43011373 7:0.22914196 8:-0.62012455 
0 4 0 0 1:0.21242328 2:-0.072451841 3:-0.068134856 4:-0.35087704 5:-0.82599532 6:-0.43011373 7:1.131289 8:-0.62012455 
4 2.747599243714927 4 4 1:-0.15750088 2:-0.083886716 3:-0.032762202 4:2.5767271 5:-2.1804417 6:-0.43011373 7:-0.070032164 8:1.6125793 
4 4 0 4 1:-0.016220054 2:0.059197867 3:-0.068134856 4:-0.35087704 5:-1.1363893 6:-0.43011373 7:0.42670978 8:-0.62012455 
4 4 4 0 1:-0.17538102 2:-0.085216538 3:-0.068134856 4:-0.35087704 5:0.13340418 6:-0.43011373 7:-0.39733377 8:1.6125793 
0 4 4 0 1:-0.18899956 2:0.16387953 3:-0.032762202 4:-0.35087704 5:0.81062736 6:1.4126284 7:0.01195748 8:-0.62012455 
4 4 4 4 1:-0.1573156 2:-0.084603387 3:-0.068134856 4:-0.35087704 5:-0.14877214 6:-0.43011373 7:-0.68114715 8:-0.62012455 
0 4 4 0 1:-0.16796956 2:-0.081949052 3:-0.068134856 4:-0.35087704 5:0.64132157 6:-0.43011373 7:0.90672641 8:-0.62012455 
4 4 0.00483205569940178 4 1:-0.12479785 2:-0.083549616 3:-0.068134856 4:-0.35087704 5:-1.8136125 6:-0.43011373 7:-0.62698525 8:-0.62012455 
0 0.0887383678264366 0 0 1:-0.072639743 2:-0.049250299 3:-0.068134856 4:-0.35087704 5:-0.54381899 6:-0.43011373 7:0.88557697 8:-0.62012455 
4 4 4 4 1:0.32016729 2:-0.07155733 3:-0.068134856 4:-0.35087704 5:-0.79777769 6:-0.43011373 7:-0.10013774 8:1.6125793 
4 4 4 4 1:-0.1633374 2:-0.084916598 3:-0.068134856 4:-0.35087704 5:0.81062736 6:-0.43011373 7:-0.52609956 8:1.6125793 
1.854587256356033 4 3.396481385280945 0 1:-0.16398591 2:-0.084802462 3:-0.068134856 4:-0.35087704 5:-1.8982654 6:1.4126284 7:-0.029891401 8:1.6125793 
4 4 4 4 1:-0.15379516 2:-0.084154804 3:-0.068134856 4:-0.35087704 5:-2.0957888 6:-0.43011373 7:-0.48834117 8:1.6125793 
4 0 0 0 1:-0.19168621 2:-0.085272279 3:-0.068134856 4:-0.35087704 5:-1.0235187 6:-0.43011373 7:-0.15559537 8:-0.62012455 
4 4 4 0 1:0.02074457 2:-0.083207206 3:-0.068134856 4:-0.35087704 5:0.52845104 6:-0.43011373 7:-0.76774604 8:1.6125793 
4 0 0 0 1:-0.14286326 2:-0.0848874 3:-0.068134856 4:-0.35087704 5:-0.82599532 6:-0.43011373 7:1.4359719 8:1.6125793 
4 4 4 4 1:-0.19372436 2:-0.085338637 3:-0.068134856 4:-0.35087704 5:-0.79777769 6:-0.43011373 7:-0.85277705 8:-0.62012455 
0 4 0 0 1:-0.17575159 2:-0.08395042 3:-0.068134856 4:-0.35087704 5:-0.74134242 6:-0.43011373 7:0.75752101 8:-0.62012455 
4 4 0 4 1:-0.14026926 2:-0.074384197 3:-0.068134856 4:-0.35087704 5:-1.2210422 6:-0.43011373 7:0.31217771 8:1.6125793 
0 4 0 0 1:-0.070601593 2:-0.081569482 3:-0.050448529 4:-0.35087704 5:-0.62847189 6:-0.43011373 7:0.9535573 8:-0.62012455 
4 4 4 4 1:-0.096263751 2:-0.076823531 3:-0.068134856 4:-0.35087704 5:-1.6725243 6:-0.43011373 7:-0.19954293 8:-0.62012455 
4 4 4 0 1:0.26745333 2:-0.078965579 3:-0.068134856 4:-0.35087704 5:-0.34629557 6:-0.43011373 7:-0.015842133 8:1.6125793 
4 4 4 4 1:-0.18853635 2:-0.085272279 3:-0.068134856 4:-0.35087704 5:0.92349789 6:-0.43011373 7:-0.63061868 8:-0.62012455 
0 4 0 4 1:-0.11229102 2:-0.082580783 3:-0.068134856 4:-0.35087704 5:0.81062736 6:-0.43011373 7:0.37066217 8:1.6125793 
4 4 4 0 1:-0.11794225 2:-0.084590115 3:-0.068134856 4:-0.35087704 5:0.86706263 6:-0.43011373 7:-0.1811912 8:-0.62012455 
4 4 4 4 1:-0.083849566 2:-0.04118112 3:0.32096435 4:-0.35087704 5:0.92349789 6:-0.43011373 7:-0.36901164 8:-0.62012455 
0 4 4 0 1:-0.15379516 2:-0.084558263 3:-0.068134856 4:-0.35087704 5:0.838845 6:1.4126284 7:0.18183699 8:-0.62012455 
4 0 4 4 1:-0.18047639 2:-0.084821042 3:-0.068134856 4:1.6008591 5:0.52845104 6:-0.43011373 7:-0.67122436 8:-0.62012455 
4 4 4 4 1:-0.099598905 2:-0.084775918 3:-0.068134856 4:-0.35087704 5:0.6695392 6:-0.43011373 7:-0.59599422 8:-0.62012455 
4 4 4 0 1:-0.034933974 2:-0.083995544 3:-0.068134856 4:-0.35087704 5:-0.62847189 6:-0.43011373 7:-0.029891401 8:-0.62012455 
4 4 4 4 1:-0.16778428 2:-0.083884062 3:-0.068134856 4:-0.35087704 5:0.89528026 6:-0.43011373 7:-0.45136941 8:-0.62012455 
4 4 0 4 1:-0.13610031 2:-0.084749375 3:-0.068134856 4:-0.35087704 5:-1.4750009 6:-0.43011373 7:-0.10013774 8:1.6125793 
4 4 4 4 1:-0.038269128 2:-0.081208492 3:-0.068134856 4:-0.35087704 5:-0.88243058 6:-0.43011373 7:-1.1538328 8:1.6125793 
4 4 4 0 1:-0.13795318 2:-0.084351225 3:-0.068134856 4:-0.35087704 5:0.18983945 6:-0.43011373 7:-0.19753812 8:1.6125793 
0 4 4 4 1:-0.13897225 2:-0.08249319 3:-0.068134856 4:-0.35087704 5:-0.48738373 6:1.4126284 7:0.17715043 8:1.6125793 
4 4 4 4 1:0.097175184 2:-0.081208492 3:-0.068134856 4:0.62499101 5:0.55666867 6:-0.43011373 7:-0.19592819 8:-0.62012455 
0 4 0 2.977334979061435 1:-0.15601859 2:0.46444581 3:0.56857293 4:-0.35087704 5:-0.12055451 6:-0.43011373 7:1.0706345 8:-0.62012455 
4 4 4 4 1:-0.18093961 2:-0.084911289 3:-0.068134856 4:-0.35087704 5:-0.60025426 6:-0.43011373 7:-0.59803759 8:1.6125793 
4 4 4 4 1:-0.18594234 2:-0.085022771 3:-0.068134856 4:-0.35087704 5:0.64132157 6:-0.43011373 7:-1.060171 8:-0.62012455 
4 4 0 4 1:-0.19029657 2:-0.084720177 3:-0.050448529 4:-0.35087704 5:0.78240973 6:-0.43011373 7:-0.070032164 8:1.6125793 
4 4 4 0 1:-0.094596174 2:-0.08331338 3:-0.068134856 4:-0.35087704 5:-0.23342504 6:-0.43011373 7:-0.54593179 8:-0.62012455 
4 4 4 3.992137079310678 1:-0.1890922 2:-0.074431975 3:-0.050448529 4:-0.35087704 5:-0.17698977 6:-0.43011373 7:-0.67668785 8:-0.62012455 
0 4 4 0 1:-0.16583877 2:-0.082540968 3:-0.050448529 4:-0.35087704 5:-0.03590161 6:-0.43011373 7:-0.014703004 8:-0.62012455 
4 4 4 4 1:-0.039566132 2:-0.081877385 3:-0.068134856 4:-0.35087704 5:0.86706263 6:-0.43011373 7:-0.35803512 8:-0.62012455 
4 1.335252162643993 0 3.853403774650729 1:-0.12609485 2:1.6744112 3:0.14410107 4:-0.35087704 5:0.18983945 6:-0.43011373 7:0.97126646 8:-0.62012455 
4 0 0 4 1:-0.13304309 2:0.31050234 3:-0.068134856 4:-0.35087704 5:0.55666867 6:-0.43011373 7:-0.57909002 8:-0.62012455 
4 3.39936936638337 0 0 1:-0.17778974 2:0.61940323 3:0.055669436 4:-0.35087704 5:0.81062736 6:-0.43011373 7:-0.52609956 8:1.6125793 
0 4 4 0 1:0.33276676 2:-0.07241468 3:-0.068134856 4:-0.35087704 5:-0.68490716 6:-0.43011373 7:0.42670978 8:-0.62012455 
4 4 4 4 1:-0.18038375 2:-0.084454744 3:-0.068134856 4:-0.35087704 5:-2.462618 6:-0.43011373 7:-0.64805915 8:1.6125793 
4 4 0 4 1:0.11496267 2:0.0092459364 3:-0.068134856 4:-0.35087704 5:-0.85421295 6:-0.43011373 7:-0.22863713 8:-0.62012455 
4 4 0 0 1:-0.086999434 2:-0.081073121 3:-0.068134856 4:-0.35087704 5:-1.0235187 6:-0.43011373 7:0.010777531 8:-0.62012455 
4 0 4 4 1:-0.15083058 2:-0.085163451 3:-0.068134856 4:1.6008591 5:-0.51560136 6:-0.43011373 7:-0.21223295 8:-0.62012455 
4 4 0 0 1:-0.16028018 2:-0.084518448 3:-0.068134856 4:-0.35087704 5:-0.79777769 6:-0.43011373 7:-0.10013774 8:-0.62012455 
1.766974452421467 4 0 0 1:-0.039566132 2:-0.081877385 3:-0.068134856 4:-0.35087704 5:0.89528026 6:-0.43011373 7:-0.012329817 8:-0.62012455 
0 4 4 0 1:0.0076818835 2:-0.077646374 3:-0.050448529 4:-0.35087704 5:0.72597447 6:-0.43011373 7:-0.23757622 8:-0.62012455 
4 0 4 0 1:-0.18964806 2:-0.085335983 3:-0.068134856 4:-0.35087704 5:-1.4185656 6:-0.43011373 7:2.3131638 8:-0.62012455 
0 4 4 0 1:-0.15814939 2:0.0016492296 3:-0.050448529 4:-0.35087704 5:0.44379814 6:1.4126284 7:-0.16599368 8:-0.62012455 
4 4 4 0 1:-0.15555538 2:-0.083424862 3:0.020296781 4:-0.35087704 5:0.78240973 6:1.4126284 7:0.020284553 8:-0.62012455 
4 4 4 4 1:-0.077179258 2:-0.084237088 3:-0.068134856 4:-0.35087704 5:-0.79777769 6:-0.43011373 7:-0.85277705 8:-0.62012455 
0 4 4 0 1:-0.06874873 2:-0.083865481 3:-0.068134856 4:-0.35087704 5:0.07696892 6:-0.43011373 7:0.055625878 8:-0.62012455 
2.266372842840397 4 0 0 1:0.21853773 2:-0.074912409 3:-0.068134856 4:-0.35087704 5:-0.82599532 6:-0.43011373 7:0.82660609 8:-0.62012455 
4 0 0 0 1:-0.16722842 2:-0.084791844 3:-0.068134856 4:-0.35087704 5:-0.60025426 6:-0.43011373 7:0.23565519 8:-0.62012455 
4 4 4 4 1:0.1708265 2:-0.077173903 3:-0.050448529 4:-0.35087704 5:0.92349789 6:-0.43011373 7:-0.1074046 8:1.6125793 
4 4 4 4 1:-0.18325569 2:-0.082949736 3:-0.068134856 4:-0.35087704 5:-0.092336875 6:-0.43011373 7:-0.92182652 8:1.6125793 
4 4 4 4 1:-0.19075978 2:-0.085261662 3:-0.068134856 4:-0.35087704 5:0.47201577 6:-0.43011373 7:-0.95779648 8:-0.62012455 
4 4 4 4 1:-0.15490688 2:-0.073208326 3:-0.068134856 4:0.62499101 5:0.07696892 6:-0.43011373 7:0.82528138 8:-0.62012455 
4 4 4 4 1:-0.14536463 2:-0.083807086 3:-0.068134856 4:-0.35087704 5:-0.2898603 6:-0.43011373 7:-0.65797628 8:-0.62012455 
0 4 4 0 1:0.94699096 2:0.0057262882 3:-0.068134856 4:-0.35087704 5:0.81062736 6:-0.43011373 7:0.01195748 8:-0.62012455 
4 4 4 4 1:-0.16176247 2:-0.0850095 3:-0.068134856 4:-0.35087704 5:0.30270998 6:-0.43011373 7:-0.94823374 8:-0.62012455 
3.000123371121846 4 4 0 1:-0.14110304 2:-0.081532321 3:-0.068134856 4:-0.35087704 5:-0.88243058 6:1.4126284 7:-0.68552387 8:-0.62012455 
0 4 4 0 1:-0.17334287 2:-0.085012154 3:-0.068134856 4:-0.35087704 5:0.47201577 6:-0.43011373 7:-0.27166949 8:-0.62012455 
0 4 4 0 1:0.0039761568 2:-0.043803603 3:-0.068134856 4:-0.35087704 5:-1.079954 6:1.4126284 7:0.042253485 8:-0.62012455 
4 4 4 4 1:-0.11988776 2:-0.076743901 3:-0.068134856 4:-0.35087704 5:0.89528026 6:-0.43011373 7:-0.36356149 8:-0.62012455 
4 4 4 0 1:-0.14554992 2:-0.083990235 3:-0.068134856 4:-0.35087704 5:-0.57203663 6:-0.43011373 7:-0.32920187 8:-0.62012455 
4 4 4 4 1:-0.15231287 2:-0.068810093 3:-0.050448529 4:-0.35087704 5:-2.2086593 6:-0.43011373 7:1.0775214 8:-0.62012455 
4 0 0 0 1:-0.15703767 2:-0.083804432 3:-0.068134856 4:-0.35087704 5:-0.68490716 6:-0.43011373 7:0.28302409 8:-0.62012455 
0 4 4 0 1:-0.12516842 2:-0.084457398 3:-0.068134856 4:-0.35087704 5:0.47201577 6:-0.43011373 7:-0.17365134 8:-0.62012455 
4 4 4 4 1:-0.029468027 2:-0.052451427 3:-0.068134856 4:-0.35087704 5:0.33092761 6:-0.43011373 7:2.4151343 8:-0.62012455 
4 3.848919879650059 4 4 1:-0.13989868 2:-0.073696724 3:1.8419885 4:0.62499101 5:0.86706263 6:-0.43011373 7:-0.623301 8:1.6125793 
4 2.860580645112533 0 0 1:1.1154162 2:-0.036164427 3:-0.068134856 4:-0.35087704 5:0.13340418 6:-0.43011373 7:1.2237355 8:-0.62012455 
4 4 4 0 1:-0.18520119 2:-0.084993574 3:-0.068134856 4:-0.35087704 5:-0.17698977 6:-0.43011373 7:-0.31882916 8:-0.62012455 
4 0 4 4 1:-0.12961529 2:-0.066418537 3:-0.068134856 4:0.62499101 5:-0.62847189 6:-0.43011373 7:-0.59186209 8:-0.62012455 
4 3.69509289380277 0 4 1:-0.12183327 2:0.85421633 3:0.14410107 4:-0.35087704 5:-1.0517364 6:-0.43011373 7:-0.31087674 8:1.6125793 
3.480786724009322 4 4 0 1:-0.19159357 2:-0.085118328 3:-0.068134856 4:-0.35087704 5:-1.1363893 6:1.4126284 7:-0.62698525 8:-0.62012455 
0 4 0 4 1:-0.13887961 2:-0.08532802 3:-0.068134856 4:-0.35087704 5:0.81062736 6:-0.43011373 7:0.55001452 8:1.6125793 
4 4 4 0 1:-0.18807313 2:-0.085078513 3:-0.068134856 4:-0.35087704 5:0.72597447 6:-0.43011373 7:-0.23757622 8:-0.62012455 
2.649664824563878 0 4 0 1:1.5912316 2:-0.0011617112 3:-0.050448529 4:-0.35087704 5:-1.8418301 6:-0.43011373 7:1.2674239 8:1.6125793 
4 4 4 0 1:-0.079773267 2:-0.080974911 3:-0.050448529 4:-0.35087704 5:0.838845 6:-0.43011373 7:-0.17434161 8:-0.62012455 
4 4 0 4 1:-0.016220054 2:0.059720771 3:-0.068134856 4:-0.35087704 5:-0.99530111 6:-0.43011373 7:-0.16855949 8:-0.62012455 
0 4 4 0 1:0.016853557 2:-0.076048465 3:-0.068134856 4:-0.35087704 5:0.838845 6:-0.43011373 7:-0.085296961 8:-0.62012455 
4 0 4 4 1:-0.12377877 2:-0.084990919 3:-0.068134856 4:-0.35087704 5:-1.6725243 6:-0.43011373 7:-0.19954293 8:-0.62012455 
0 4 4 4 1:-0.13906489 2:-0.084197273 3:-0.068134856 4:-0.35087704 5:-0.2898603 6:1.4126284 7:-0.53401216 8:1.6125793 
0 4 4 0 1:0.26550782 2:-0.079459285 3:-0.068134856 4:-0.35087704 5:-0.092336875 6:-0.43011373 7:0.0061984599 8:-0.62012455 
4 4 4 4 1:-0.14536463 2:-0.084515794 3:-0.068134856 4:-0.35087704 5:0.81062736 6:-0.43011373 7:-0.7054519 8:-0.62012455 
4 4 4 0 1:-0.19177886 2:-0.085343946 3:-0.068134856 4:-0.35087704 5:0.44379814 6:1.4126284 7:-0.95626495 8:-0.62012455 
1.035622617197648 4 4 0 1:0.0083303857 2:0.22023106 3:-0.068134856 4:-0.35087704 5:0.838845 6:3.2553706 7:-0.26338626 8:-0.62012455 
0 4 4 0 1:-0.12998586 2:-0.083480603 3:-0.068134856 4:-0.35087704 5:0.81062736 6:1.4126284 7:0.37066217 8:-0.62012455 
4 4 4 4 1:-0.17547366 2:-0.08502808 3:-0.068134856 4:-0.35087704 5:-0.91064822 6:-0.43011373 7:-0.52161575 8:-0.62012455 
4 0 0 0 1:-0.1661167 2:-0.085251044 3:-0.068134856 4:-0.35087704 5:-0.60025426 6:-0.43011373 7:0.096706391 8:-0.62012455 
0 4 4 0 1:-0.094596174 2:-0.077285385 3:-0.050448529 4:-0.35087704 5:0.72597447 6:-0.43011373 7:-0.054324909 8:-0.62012455 
4 4 4 4 1:-0.18927749 2:-0.077160631 3:-0.050448529 4:-0.35087704 5:0.95171553 6:-0.43011373 7:-0.37438713 8:-0.62012455 
4 0 4 4 1:-0.080884985 2:-0.028530559 3:-0.068134856 4:0.62499101 5:-0.34629557 6:-0.43011373 7:-0.64805915 8:-0.62012455 
4 4 4 4 1:-0.18955542 2:-0.085301477 3:-0.068134856 4:-0.35087704 5:-0.82599532 6:-0.43011373 7:-0.54446697 8:-0.62012455 
0.8473493767756687 0.8885745280567836 0.4825790243407751 0.5218985087349907 1:-0.16417119 2:5.4055833 3:3.1154041 4:-0.35087704 5:-1.7571772 6:-0.43011373 7:2.6394694 8:1.6125793 
4 4 4 0 1:0.085316858 2:-0.079069098 3:-0.068134856 4:-0.35087704 5:-0.74134242 6:-0.43011373 7:0.16941216 8:-0.62012455 
0 4 4 0 1:-0.16898864 2:-0.084974993 3:-0.050448529 4:-0.35087704 5:0.78240973 6:1.4126284 7:0.020284553 8:-0.62012455 
4 4 4 0 1:-0.12489049 2:-0.08379116 3:-0.068134856 4:-0.35087704 5:0.78240973 6:-0.43011373 7:-0.2506656 8:-0.62012455 
4 0 0 0 1:-0.17334287 2:-0.085012154 3:-0.068134856 4:-0.35087704 5:-1.0235187 6:-0.43011373 7:0.010777531 8:-0.62012455 
4 4 4 4 1:-0.18974071 2:-0.085314748 3:-0.068134856 4:-0.35087704 5:-2.1804417 6:-0.43011373 7:-0.070032164 8:-0.62012455 
0 4 4 0 1:-0.13887961 2:-0.08532802 3:-0.068134856 4:-0.35087704 5:0.81062736 6:-0.43011373 7:0.90871921 8:-0.62012455 
4 4 0 0 1:-0.16815485 2:-0.084053939 3:-0.050448529 4:-0.35087704 5:-0.96708348 6:-0.43011373 7:-0.019084272 8:-0.62012455 
0 0 4 0 1:0.020466641 2:-0.08418931 3:-0.068134856 4:-0.35087704 5:0.33092761 6:-0.43011373 7:0.681636 8:-0.62012455 
4 0 0 0 1:-0.17936467 2:-0.085067895 3:-0.068134856 4:-0.35087704 5:-0.79777769 6:-0.43011373 7:0.35144585 8:-0.62012455 
4 4 0 0 1:0.5234264 2:0.018666171 3:-0.068134856 4:-0.35087704 5:-0.99530111 6:-0.43011373 7:0.81671379 8:-0.62012455 
4 4 4 3.025238556316077 1:-0.16926657 2:-0.085102402 3:-0.068134856 4:-0.35087704 5:-1.6725243 6:-0.43011373 7:0.27760199 8:1.6125793 
4 4 4 4 1:-0.18390419 2:-0.084436163 3:-0.068134856 4:0.62499101 5:-1.5314361 6:-0.43011373 7:-0.28180929 8:1.6125793 
4 4 4 4 1:-0.16630199 2:-0.084990919 3:-0.068134856 4:0.62499101 5:1.0363684 6:-0.43011373 7:0.37367144 8:-0.62012455 
0 4 4 4 1:-0.10098855 2:-0.076080317 3:-0.068134856 4:-0.35087704 5:-0.85421295 6:3.2553706 7:-0.3828364 8:-0.62012455 
4 0 0 0 1:-0.15583331 2:-0.084465361 3:-0.068134856 4:-0.35087704 5:-1.1081716 6:-0.43011373 7:0.058638228 8:-0.62012455 
4 0 0 0 1:-0.19140828 2:-0.085285551 3:-0.068134856 4:-0.35087704 5:-1.0235187 6:-0.43011373 7:0.17715043 8:-0.62012455 
4 4 0 4 1:-0.016220054 2:0.058459962 3:-0.068134856 4:-0.35087704 5:-0.54381899 6:-0.43011373 7:-0.066147574 8:1.6125793 
4 4 4 4 1:-0.17000771 2:-0.083058564 3:-0.068134856 4:-0.35087704 5:0.81062736 6:-0.43011373 7:-0.52609956 8:-0.62012455 
0 4 4 0 1:-0.16880335 2:-0.085012154 3:-0.068134856 4:-0.35087704 5:0.30270998 6:-0.43011373 7:-0.33143665 8:-0.62012455 
4 4 0 0 1:-0.1661167 2:-0.085049315 3:-0.068134856 4:-0.35087704 5:0.81062736 6:-0.43011373 7:-0.16739487 8:-0.62012455 
4 4 0 0 1:2.64338 2:0.47443142 3:0.17947373 4:-0.35087704 5:0.27449235 6:-0.43011373 7:0.089872844 8:-0.62012455 
4 4 4 4 1:-0.12702128 2:-0.084794499 3:-0.068134856 4:-0.35087704 5:-0.79777769 6:-0.43011373 7:-0.70224918 8:1.6125793 
4 0 0 0 1:-0.13193137 2:-0.063326237 3:-0.068134856 4:-0.35087704 5:0.97993316 6:-0.43011373 7:0.30843789 8:-0.62012455 
0 4 0 0 1:-0.19048185 2:-0.084998882 3:-0.068134856 4:-0.35087704 5:-0.3745132 6:-0.43011373 7:1.0174176 8:-0.62012455 
4 4 4 4 1:-0.12387141 2:-0.082020719 3:-0.068134856 4:-0.35087704 5:-0.12055451 6:-0.43011373 7:-0.56844664 8:1.6125793 
4 4 4 4 1:0.031769107 2:-0.078885949 3:-0.015075874 4:-0.35087704 5:-0.68490716 6:-0.43011373 7:-0.0043472785 8:1.6125793 
0 4 4 4 1:-0.1837189 2:-0.084903326 3:-0.068134856 4:-0.35087704 5:0.30270998 6:1.4126284 7:-0.43423616 8:1.6125793 
4 4 4 4 1:-0.13989868 2:-0.084298138 3:-0.068134856 4:-0.35087704 5:-0.0076839777 6:-0.43011373 7:-0.92804098 8:1.6125793 
4 4 4 0 1:-0.13647089 2:-0.083480603 3:-0.068134856 4:-0.35087704 5:0.18983945 6:-0.43011373 7:-0.83506789 8:1.6125793 
4 4 4 0 1:-0.1607434 2:-0.085006845 3:-0.068134856 4:-0.35087704 5:-2.0393535 6:-0.43011373 7:6.116663 8:-0.62012455 
4 4 4 4 1:-0.13813846 2:-0.083316034 3:-0.068134856 4:-0.35087704 5:0.92349789 6:-0.43011373 7:-0.54341634 8:-0.62012455 
4 4 4 4 1:-0.16991507 2:-0.084590115 3:-0.068134856 4:-0.35087704 5:-2.152224 6:-0.43011373 7:0.60232562 8:-0.62012455 
4 4 4 0 1:-0.030765031 2:-0.046980842 3:-0.068134856 4:-0.35087704 5:-0.51560136 6:-0.43011373 7:-0.21223295 8:-0.62012455 
4 4 4 0 1:-0.16000225 2:-0.082028682 3:-0.068134856 4:-0.35087704 5:-0.03590161 6:1.4126284 7:-0.92600682 8:-0.62012455 
4 4 4 4 1:-0.19168621 2:-0.085272279 3:-0.068134856 4:-0.35087704 5:-1.0235187 6:-0.43011373 7:-0.48834117 8:-0.62012455 
4 4 4 0 1:-0.17399137 2:-0.073922342 3:-0.032762202 4:-0.35087704 5:0.92349789 6:-0.43011373 7:0.93902357 8:-0.62012455 
4 4 4 0 1:-0.18297776 2:-0.085126291 3:-0.068134856 4:-0.35087704 5:0.92349789 6:1.4126284 7:-0.63061868 8:-0.62012455 
4 4 4 0 1:-0.18862899 2:-0.085290859 3:-0.068134856 4:-0.35087704 5:0.52845104 6:-0.43011373 7:-0.67122436 8:1.6125793 
4 4 4 4 1:-0.16018754 2:-0.084300792 3:-0.068134856 4:-0.35087704 5:-1.1646069 6:-0.43011373 7:-0.61956487 8:-0.62012455 
4 4 4 4 1:-0.14888507 2:0.13632488 3:0.25021904 4:1.6008591 5:0.52845104 6:-0.43011373 7:0.58355751 8:-0.62012455 
0 4 4 0 1:-0.17797502 2:-0.084847585 3:-0.068134856 4:-0.35087704 5:0.78240973 6:1.4126284 7:0.74281829 8:-0.62012455 
4 0 4 0 1:-0.17982789 2:-0.079557496 3:-0.068134856 4:-0.35087704 5:-1.2492598 6:-0.43011373 7:1.63536 8:-0.62012455 
0 4 4 0 1:-0.16407855 2:-0.085325366 3:-0.068134856 4:-0.35087704 5:0.6695392 6:-0.43011373 7:-0.13112877 8:-0.62012455 
4 4 0 0 1:-0.17130472 2:-0.075894513 3:-0.050448529 4:-0.35087704 5:0.21805708 6:-0.43011373 7:0.11060127 8:1.6125793 
0 4 4 0 1:-0.12655807 2:-0.084186656 3:-0.068134856 4:-0.35087704 5:0.78240973 6:1.4126284 7:0.47186814 8:-0.62012455 
0 0 4 0 1:-0.14073247 2:-0.068470338 3:-0.068134856 4:-0.35087704 5:-1.2492598 6:1.4126284 7:1.0775214 8:-0.62012455 
0 0 4 0 1:0.25754051 2:-0.076751864 3:-0.068134856 4:-0.35087704 5:0.10518655 6:-0.43011373 7:0.69921712 8:-0.62012455 
0.5657127071915368 0.421086184183176 0.3252923169608572 0.3562123368782818 1:0.79227687 2:8.1693858 3:0.14410107 4:-0.35087704 5:-0.34629557 6:-0.43011373 7:-0.26872894 8:-0.62012455 
4 4 4 0 1:-0.079217408 2:-0.081957015 3:-0.068134856 4:-0.35087704 5:-1.3339127 6:-0.43011373 7:0.79145037 8:-0.62012455 
4 4 4 4 1:-0.19140828 2:-0.085285551 3:-0.068134856 4:-0.35087704 5:0.47201577 6:-0.43011373 7:-0.66374206 8:-0.62012455 
4 4 4 3.609309874016869 1:-0.17473251 2:-0.08518734 3:-0.068134856 4:-0.35087704 5:0.16162182 6:-0.43011373 7:5.1683374 8:1.6125793 
4 4 0 4 1:-0.17880881 2:-0.085118328 3:-0.068134856 4:-0.35087704 5:0.92349789 6:-0.43011373 7:-0.28180929 8:-0.62012455 
4 4 0 4 1:-0.013440759 2:-0.072043073 3:-0.068134856 4:-0.35087704 5:-1.2210422 6:-0.43011373 7:-0.054324909 8:-0.62012455 
0 4 4 0 1:-0.18594234 2:-0.080924478 3:-0.032762202 4:-0.35087704 5:-0.0076839777 6:-0.43011373 7:-0.2506656 8:-0.62012455 
4 4 4 4 1:0.062433996 2:-0.076544825 3:-0.068134856 4:0.62499101 5:0.27449235 6:-0.43011373 7:-0.32469569 8:-0.62012455 
4 4 4 4 1:0.24484839 2:-0.07357197 3:-0.068134856 4:-0.35087704 5:0.78240973 6:-0.43011373 7:-0.7925659 8:-0.62012455 
0 4 4 0 1:-0.076623399 2:-0.083876099 3:-0.015075874 4:-0.35087704 5:0.78240973 6:1.4126284 7:-0.070032164 8:-0.62012455 
4 4 4 0 1:-0.10821472 2:-0.084558263 3:-0.068134856 4:-0.35087704 5:-0.34629557 6:-0.43011373 7:-0.14228554 8:-0.62012455 
4 4 4 0 1:-0.1369341 2:-0.081930471 3:-0.068134856 4:-0.35087704 5:0.81062736 6:1.4126284 7:-0.61577573 8:1.6125793 
4 4 0 0 1:-0.039566132 2:-0.081877385 3:-0.050448529 4:-0.35087704 5:0.92349789 6:-0.43011373 7:-0.020202251 8:-0.62012455 
0 4 4 0 1:0.26745333 2:-0.078962925 3:-0.032762202 4:-0.35087704 5:0.50023341 6:-0.43011373 7:-0.1811912 8:-0.62012455 
4 4 4 4 1:-0.039566132 2:-0.081877385 3:-0.068134856 4:-0.35087704 5:0.92349789 6:-0.43011373 7:-0.28180929 8:-0.62012455 
0 0 4 0 1:0.006292236 2:-0.080759909 3:-0.068134856 4:-0.35087704 5:0.50023341 6:-0.43011373 7:0.88871453 8:-0.62012455 
4 4 0 0 1:-0.17973524 2:-0.08478919 3:-0.068134856 4:-0.35087704 5:0.78240973 6:-0.43011373 7:-0.070032164 8:-0.62012455 
4 0 0 4 1:-0.18075432 2:-0.084436163 3:-0.068134856 4:-0.35087704 5:-1.4185656 6:-0.43011373 7:-0.33806887 8:-0.62012455 
4 4 4 4 1:-0.17602952 2:-0.08423178 3:-0.068134856 4:-0.35087704 5:0.21805708 6:-0.43011373 7:-0.94309376 8:-0.62012455 
4 4 4 4 1:-0.16982243 2:-0.085030734 3:-0.068134856 4:0.62499101 5:0.64132157 6:-0.43011373 7:-0.21721496 8:1.6125793 
4 4 4 4 1:-0.10247084 2:-0.084733449 3:-0.068134856 4:0.62499101 5:0.838845 6:1.4126284 7:-0.44147556 8:-0.62012455 
4 4 4 0 1:-0.13378423 2:-0.079751262 3:-0.068134856 4:-0.35087704 5:-1.4467832 6:-0.43011373 7:0.089872844 8:-0.62012455 
0 4 4 0 1:0.0083303857 2:0.22022575 3:-0.032762202 4:-0.35087704 5:0.78240973 6:1.4126284 7:-0.34098232 8:-0.62012455 
4 4 4 0 1:0.10486457 2:-0.079379655 3:-0.068134856 4:-0.35087704 5:-0.31807793 6:-0.43011373 7:-0.27749235 8:-0.62012455 
4 4 4 0 1:-0.12887415 2:-0.079169963 3:-0.068134856 4:-0.35087704 5:0.52845104 6:-0.43011373 7:-0.47818099 8:1.6125793 
4 4 4 4 1:-0.091353663 2:-0.080908552 3:-0.050448529 4:-0.35087704 5:0.838845 6:-0.43011373 7:-0.26338626 8:-0.62012455 
4 4 4 0 1:-0.14480877 2:-0.053497235 3:0.12641475 4:-0.35087704 5:-0.26164267 6:-0.43011373 7:-0.29450866 8:-0.62012455 
